/*
 * Copyright (c) 2026 EdgeImpulse Inc.
 *
 * Generated by Edge Impulse and licensed under the applicable Edge Impulse
 * Terms of Service. Community and Professional Terms of Service
 * (https://edgeimpulse.com/legal/terms-of-service) or Enterprise Terms of
 * Service (https://edgeimpulse.com/legal/enterprise-terms-of-service),
 * according to your product plan subscription (the “License”).
 *
 * This software, documentation and other associated files (collectively referred
 * to as the “Software”) is a single SDK variation generated by the Edge Impulse
 * platform and requires an active paid Edge Impulse subscription to use this
 * Software for any purpose.
 *
 * You may NOT use this Software unless you have an active Edge Impulse subscription
 * that meets the eligibility requirements for the applicable License, subject to
 * your full and continued compliance with the terms and conditions of the License,
 * including without limitation any usage restrictions under the applicable License.
 *
 * If you do not have an active Edge Impulse product plan subscription, or if use
 * of this Software exceeds the usage limitations of your Edge Impulse product plan
 * subscription, you are not permitted to use this Software and must immediately
 * delete and erase all copies of this Software within your control or possession.
 * Edge Impulse reserves all rights and remedies available to enforce its rights.
 *
 * Unless required by applicable law or agreed to in writing, the Software is
 * distributed on an "AS IS" BASIS, WITHOUT WARRANTIES OR CONDITIONS OF ANY KIND,
 * either express or implied. See the License for the specific language governing
 * permissions, disclaimers and limitations under the License.
 */
// Generated on: 13.04.2026 16:19:51

#include <stdio.h>
#include <stdlib.h>
#include "edge-impulse-sdk/tensorflow/lite/c/builtin_op_data.h"
#include "edge-impulse-sdk/tensorflow/lite/c/common.h"
#include "edge-impulse-sdk/tensorflow/lite/micro/micro_mutable_op_resolver.h"
#include "edge-impulse-sdk/porting/ei_classifier_porting.h"

#if EI_CLASSIFIER_PRINT_STATE
#if defined(__cplusplus) && EI_C_LINKAGE == 1
extern "C" {
    extern void ei_printf(const char *format, ...);
}
#else
extern void ei_printf(const char *format, ...);
#endif
#endif

#define STRINGIZE(x) #x
#define STRINGIZE_VALUE_OF(x) STRINGIZE(x)

#if defined (__GNUC__)  /* GNU compiler */
#define ALIGN(X) __attribute__((aligned(X)))
#define DEFINE_SECTION(x) __attribute__((section(x)))
#elif defined (_MSC_VER)
#define ALIGN(X) __declspec(align(X))
#elif defined (__TASKING__) /* TASKING Compiler */
#define ALIGN(X) __align(X)
#define DEFINE_SECTION(x) __attribute__((section(x)))
#elif defined (__ARMCC_VERSION) /* Arm Compiler */
#define ALIGN(X) __ALIGNED(x)
#define DEFINE_SECTION(x) __attribute__((section(x)))
#elif defined (__ICCARM__) /* IAR Compiler */
#define ALIGN(x) __attribute__((aligned(x)))
#define DEFINE_SECTION(x) __attribute__((section(x)))
#elif defined (__clang__) /* LLVM/Clang Compiler */
#define ALIGN(X) __ALIGNED(x)
#define DEFINE_SECTION(x) __attribute__((section(x)))
#endif

#if defined(EI_MODEL_SECTION) && (defined(__GNUC__) || defined(__clang__))
#define MODEL_SECTION(X) __attribute__((section(STRINGIZE_VALUE_OF(X))))
#else
#define MODEL_SECTION(X)
#endif

#ifndef EI_MAX_SCRATCH_BUFFER_COUNT
#ifndef CONFIG_IDF_TARGET_ESP32S3
#define EI_MAX_SCRATCH_BUFFER_COUNT 14
#else
#define EI_MAX_SCRATCH_BUFFER_COUNT 28
#endif // CONFIG_IDF_TARGET_ESP32S3
#endif // EI_MAX_SCRATCH_BUFFER_COUNT

#ifndef EI_MAX_OVERFLOW_BUFFER_COUNT
#define EI_MAX_OVERFLOW_BUFFER_COUNT 10
#endif // EI_MAX_OVERFLOW_BUFFER_COUNT

using namespace tflite;
using namespace tflite::ops;
using namespace tflite::ops::micro;

namespace {

#if defined(EI_CLASSIFIER_ALLOCATION_STATIC_HIMAX) || defined(EI_CLASSIFIER_ALLOCATION_STATIC_HIMAX_GNU)
constexpr int kTensorArenaSize = 242640;
#else
constexpr int kTensorArenaSize = 241616;
#endif

#if defined(EI_CLASSIFIER_ALLOCATION_STATIC)
#if defined (EI_TENSOR_ARENA_LOCATION)
uint8_t tensor_arena[kTensorArenaSize] ALIGN(16) DEFINE_SECTION(STRINGIZE_VALUE_OF(EI_TENSOR_ARENA_LOCATION));
#else
uint8_t tensor_arena[kTensorArenaSize] ALIGN(16);
#endif
#elif defined(EI_CLASSIFIER_ALLOCATION_STATIC_HIMAX)
#pragma Bss(".tensor_arena")
uint8_t tensor_arena[kTensorArenaSize] ALIGN(16);
#pragma Bss()
#elif defined(EI_CLASSIFIER_ALLOCATION_STATIC_HIMAX_GNU)
uint8_t tensor_arena[kTensorArenaSize] ALIGN(16) __attribute__((section(".tensor_arena")));
#else
#define EI_CLASSIFIER_ALLOCATION_HEAP 1
uint8_t* tensor_arena = NULL;
#endif

static uint8_t* tensor_boundary;
static uint8_t* current_location;

template <int SZ, class T> struct TfArray {
  int sz; T elem[SZ];
};

enum used_operators_e {
  OP_CONV_2D, OP_DEPTHWISE_CONV_2D, OP_PAD, OP_ADD, OP_SOFTMAX,  OP_LAST
};

struct TensorInfo_t { // subset of TfLiteTensor used for initialization from constant memory
  TfLiteAllocationType allocation_type;
  TfLiteType type;
  void* data;
  TfLiteIntArray* dims;
  size_t bytes;
  TfLiteQuantization quantization;
};

typedef struct {
  TfLiteTensor tensor;
  int16_t index;
} TfLiteTensorWithIndex;

typedef struct {
  TfLiteEvalTensor tensor;
  int16_t index;
} TfLiteEvalTensorWithIndex;

TfLiteContext ctx{};
static const int MAX_TFL_TENSOR_COUNT = 4;
static TfLiteTensorWithIndex tflTensors[MAX_TFL_TENSOR_COUNT];
static const int MAX_TFL_EVAL_COUNT = 4;
static TfLiteEvalTensorWithIndex tflEvalTensors[MAX_TFL_EVAL_COUNT];
TfLiteRegistration registrations[OP_LAST];

namespace g0 {
const TfArray<4, int> tensor_dimension0 = { 4, { 1,96,96,3 } };
const TfArray<1, float> quant0_scale = { 1, { 0.0038446751423180103, } };
const TfArray<1, int> quant0_zero = { 1, { -128 } };
const TfLiteAffineQuantization quant0 = { (TfLiteFloatArray*)&quant0_scale, (TfLiteIntArray*)&quant0_zero, 0 };
const MODEL_SECTION(EI_MODEL_SECTION) ALIGN(16) int32_t tensor_data1[4*2] = { 
  0, 0, 
  0, 1, 
  0, 1, 
  0, 0, 
};
const TfArray<2, int> tensor_dimension1 = { 2, { 4,2 } };
const MODEL_SECTION(EI_MODEL_SECTION) ALIGN(8) int32_t tensor_data2[2] = { 28371, -25729, };
const TfArray<1, int> tensor_dimension2 = { 1, { 2 } };
const TfArray<2, float> quant2_scale = { 2, { 0.00011759045446524397, 0.00013046538515482098, } };
const TfArray<2, int> quant2_zero = { 2, { 0,0 } };
const TfLiteAffineQuantization quant2 = { (TfLiteFloatArray*)&quant2_scale, (TfLiteIntArray*)&quant2_zero, 0 };
const MODEL_SECTION(EI_MODEL_SECTION) ALIGN(16) int8_t tensor_data3[2*1*1*32] = { 
  /* [0][0][][] */ 76,-46,-59,116,-93,3,-58,85,127,-19,-50,-21,-22,81,-50,29,125,-106,-47,-120,116,79,84,-78,-88,-114,-61,89,-5,-106,6,86, 
  /* [1][0][][] */ 60,79,79,-67,-79,80,-9,14,-39,-20,41,107,120,45,34,-1,-43,2,-65,-95,-84,40,33,117,90,77,-50,-6,112,-111,-127,-20, 
};
const TfArray<4, int> tensor_dimension3 = { 4, { 2,1,1,32 } };
const TfArray<2, float> quant3_scale = { 2, { 0.00301761319860816, 0.0033480105921626091, } };
const TfLiteAffineQuantization quant3 = { (TfLiteFloatArray*)&quant3_scale, (TfLiteIntArray*)&g0::quant2_zero, 0 };
const MODEL_SECTION(EI_MODEL_SECTION) ALIGN(16) int32_t tensor_data4[32] = { 179, 220, 225, -275, -312, 219, -321, 174, -309, -2, 222, -179, 222, 182, -497, -461, -268, 304, -238, -353, -206, 193, -40, 225, 237, 41, -279, -206, 104, -304, 906, -135, };
const TfArray<1, int> tensor_dimension4 = { 1, { 32 } };
const TfArray<32, float> quant4_scale = { 32, { 4.212860221741721e-05, 4.1451814468018711e-05, 4.1742863686522469e-05, 4.1921750380424783e-05, 4.1771596443140879e-05, 4.0650698792887852e-05, 4.1778454033192247e-05, 4.0548417018726468e-05, 4.2264004150638357e-05, 4.5178050640970469e-05, 4.20500582549721e-05, 4.1400635382160544e-05, 4.1530041926307604e-05, 4.1719897126313299e-05, 4.3103456846438348e-05, 4.3604068196145818e-05, 3.9839047531131655e-05, 4.9174763262271881e-05, 4.1518098441883922e-05, 4.1064846300287172e-05, 3.8882961234776303e-05, 4.2449970351299271e-05, 4.4258456910029054e-05, 4.2285693780286238e-05, 4.4984211854171008e-05, 4.512731175054796e-05, 4.2747411498567089e-05, 4.0043658373178914e-05, 3.9334954635705799e-05, 4.087222259840928e-05, 4.7658817493356764e-05, 4.2063926230184734e-05, } };
const TfArray<32, int> quant4_zero = { 32, { 0,0,0,0,0,0,0,0,0,0,0,0,0,0,0,0,0,0,0,0,0,0,0,0,0,0,0,0,0,0,0,0 } };
const TfLiteAffineQuantization quant4 = { (TfLiteFloatArray*)&quant4_scale, (TfLiteIntArray*)&quant4_zero, 0 };
const MODEL_SECTION(EI_MODEL_SECTION) ALIGN(16) int8_t tensor_data5[32*1*1*96] = { 
  /* [0][0][][] */ -33,-48,106,12,104,-18,-87,-108,66,-96,-107,3,55,14,-38,61,-54,-28,-77,-68,-69,-103,8,112,-112,13,83,-51,110,4,-16,-82,92,-59,-93,67,-110,-80,-101,33,79,-85,-96,106,48,-106,114,-21,22,-61,-34,104,-76,-45,-101,102,29,75,127,-107,-74,80,-51,55,-11,19,75,99,51,104,93,-119,109,-110,35,90,-105,17,-59,37,57,26,92,1,-57,-38,-82,110,29,123,-17,-126,17,66,36,26, 
  /* [1][0][][] */ -54,40,-74,1,-32,80,44,8,89,-100,-103,115,75,-21,27,76,117,-36,25,113,-44,-1,44,31,41,24,-37,110,10,12,110,-65,70,115,-6,34,59,68,-24,-62,-60,13,-18,-95,-37,45,-26,-55,-19,-90,123,68,12,94,-85,-57,33,112,70,93,-54,119,-65,-73,-53,42,84,49,107,36,26,16,-110,87,-51,54,93,-42,-38,82,-79,96,-53,-113,35,127,-64,-62,86,90,93,17,94,96,36,4, 
  /* [2][0][][] */ 53,44,-63,100,-13,-68,95,97,-97,95,-31,124,101,-9,86,-107,-56,-21,22,48,-94,-11,120,24,-21,88,113,8,-72,88,89,100,-64,-15,-92,-106,-84,102,99,-23,-115,-73,20,-1,-87,127,-21,-79,108,37,97,-84,-47,72,21,14,-68,106,-58,11,-11,59,-32,80,101,52,54,95,-101,76,17,-68,42,-86,32,34,-49,-20,10,16,43,-90,-9,-35,6,-95,-13,-27,96,121,-30,2,-39,-85,-42,-61, 
  /* [3][0][][] */ 71,-3,37,-28,-78,57,-120,38,48,18,63,-3,91,95,72,1,103,96,-52,14,114,-94,-71,-121,-28,-120,-89,108,43,-106,84,4,-62,-41,-21,-18,-98,-29,43,45,-30,-99,-102,-3,73,26,-53,-89,65,-89,41,-6,96,25,90,-104,-123,-125,-125,-66,-103,34,-41,70,54,-39,-67,-37,-36,-74,-1,99,17,-110,55,-55,29,96,95,-67,-97,-127,36,91,26,42,-49,-126,-89,42,-1,-114,91,-96,-97,41, 
  /* [4][0][][] */ 48,99,-6,49,-30,-27,26,11,57,87,-14,47,25,-43,-17,-73,-31,-11,-68,25,104,-99,82,21,-24,-10,59,-66,-55,32,-74,-56,64,112,9,-109,-57,-11,-118,44,-56,-69,-80,-97,31,103,31,53,17,-47,-22,-83,-98,41,-89,19,31,-103,23,8,2,-81,-44,-75,-53,52,-4,-44,25,-109,-106,-91,-62,23,98,49,57,-29,-14,-65,0,-52,-105,-26,-5,65,86,-4,-127,-82,41,48,24,98,-106,-23, 
  /* [5][0][][] */ 107,-91,82,90,49,-127,32,57,115,-116,3,-67,28,110,38,45,68,70,-90,95,38,58,23,-26,-106,-62,-12,-98,50,37,23,-102,-33,8,-72,22,-117,-35,39,28,-90,-50,48,107,-38,31,41,-55,-108,108,29,39,41,23,33,-28,116,59,-51,-37,39,-76,43,-68,-27,111,-24,35,75,8,116,-70,-43,72,-34,-72,16,-46,16,93,116,51,30,121,-82,91,0,45,75,-100,120,90,-13,28,83,-79, 
  /* [6][0][][] */ 14,-50,113,74,-92,-68,-6,65,-18,-88,2,-95,86,52,115,-126,38,-2,2,101,-83,-126,108,57,-67,-88,-13,-61,-32,-121,43,-82,-96,-127,-49,-112,-13,37,-109,78,85,54,20,-20,-117,104,-94,-49,-89,13,-30,-71,58,-60,95,-27,5,-13,-73,111,-101,1,65,-79,-57,64,99,-54,75,-11,-113,-8,53,-71,-93,-46,-87,-108,-62,-34,30,-33,44,-32,-77,-94,-46,-101,84,93,96,16,-57,-73,74,-34, 
  /* [7][0][][] */ 127,78,-38,-46,-75,123,-18,0,125,11,-99,19,50,-89,51,84,60,23,-2,114,60,41,-1,95,-68,113,48,60,-80,118,-16,41,34,30,72,111,-107,97,-16,-24,105,-78,94,78,54,2,114,-116,62,-56,-117,-67,-27,95,18,28,127,-89,12,-56,10,-6,90,-113,-68,-55,76,31,-112,26,75,92,97,19,64,67,-62,63,-102,51,101,-32,-23,-73,97,42,-111,104,88,11,94,64,-58,-43,3,-64, 
  /* [8][0][][] */ 4,27,-48,-100,47,30,-83,-25,-2,30,37,88,-13,-54,-91,-82,-76,88,-49,21,22,-33,75,106,-125,87,37,76,-70,12,-101,111,87,-42,42,-9,112,-4,-15,65,75,96,-121,-127,-14,-38,-32,106,14,-93,-74,-11,-69,-18,-34,-113,43,99,-104,98,104,42,38,100,-41,-55,-29,95,-86,43,24,-11,69,70,8,16,-56,101,77,67,29,74,-120,-97,18,35,66,-51,31,-46,-81,98,-93,-109,-55,53, 
  /* [9][0][][] */ -2,6,110,45,75,-101,-46,-115,41,51,-10,51,-9,-74,-92,-28,6,1,-97,-54,5,95,-104,-99,106,-8,-14,25,-9,-48,-88,102,56,2,26,-20,-73,21,-32,-47,49,-63,52,-88,83,20,-96,54,49,0,-77,-48,67,-70,-53,105,78,-61,-12,-7,-83,113,88,-80,-80,6,99,39,-42,95,99,-85,2,87,-92,-92,-79,-114,-38,101,32,25,98,23,-42,-98,32,-17,97,32,-27,127,105,-4,52,-38, 
  /* [10][0][][] */ -58,90,94,-64,-7,103,114,28,45,38,30,-64,112,91,-33,19,-32,89,-115,-72,-13,34,64,-68,37,61,-113,-117,-51,88,-89,-80,95,109,125,80,-37,11,-44,40,-32,124,-108,-34,-101,-53,2,-60,4,0,43,18,64,29,-68,-40,-100,-7,37,-40,3,80,118,52,127,-72,-95,-18,19,-14,-88,-63,96,58,-86,115,-9,71,73,29,83,7,59,114,-98,76,110,-20,40,15,-10,-72,-46,-50,-40,-59, 
  /* [11][0][][] */ 111,11,-21,98,119,40,49,23,108,97,-85,112,-4,-88,19,-69,-66,-108,46,21,31,72,23,-122,-117,-108,-23,66,72,-16,28,-30,-88,-78,41,46,-68,69,-49,-72,-35,105,-89,3,-54,-62,-102,-104,80,101,119,51,-104,-99,11,10,-74,-54,-26,-97,-81,83,77,12,33,85,-65,20,71,50,-84,-79,45,87,-114,50,-71,33,-53,88,-120,-23,-85,-41,42,-86,14,-32,-107,-12,-3,-127,-98,-54,-78,-46, 
  /* [12][0][][] */ 19,76,-56,4,98,5,-32,36,-74,68,-9,21,-40,20,52,-74,-98,-27,-62,-91,33,-5,24,104,-64,-45,110,-103,96,21,-30,123,-81,-66,-44,22,2,-73,-27,50,124,47,-109,-36,-22,-79,-35,123,-40,-119,-75,115,39,8,-86,84,-16,-52,62,76,67,117,0,65,123,40,-42,127,57,112,51,81,95,108,-17,-1,-30,42,-115,-91,-55,115,50,23,-32,40,63,125,-93,-106,92,40,112,-14,36,87, 
  /* [13][0][][] */ 118,-56,106,101,99,106,87,65,78,-100,17,-25,93,80,70,-42,-117,-66,-82,19,74,-24,127,-46,-63,47,12,19,-90,-86,92,41,49,112,-20,43,-82,-26,17,77,-61,84,-50,17,-46,35,3,-30,42,105,-34,-103,-103,36,100,-88,-46,37,-15,-71,-23,119,-75,23,-48,-60,-91,95,-39,-7,107,3,-86,30,-82,-38,-102,75,88,-59,58,-92,98,28,-80,-99,102,127,-8,-48,-79,49,121,-53,76,2, 
  /* [14][0][][] */ -68,-109,77,58,78,-39,-27,-124,-89,-48,57,73,-33,-91,-102,-95,-63,-71,3,13,-54,22,-12,50,-122,-80,-44,21,-123,-121,-87,27,94,-34,-45,-4,85,105,26,-122,-17,-123,24,78,55,-124,54,-96,104,33,77,43,87,-25,-28,1,-60,8,41,87,-24,-92,-34,62,-93,-24,66,-117,-92,-97,-98,84,-7,70,39,-83,45,-118,44,24,34,-30,-126,-46,-127,-102,-121,95,99,-4,79,-60,81,94,-25,61, 
  /* [15][0][][] */ 8,-32,-35,59,72,-90,51,-103,47,-9,-78,-2,80,-7,-96,-119,80,2,-98,22,38,10,63,100,72,59,30,82,13,48,55,-104,-2,-2,-73,-10,-74,105,103,-74,9,101,-57,-30,20,-84,-49,-85,-15,-87,-15,21,-111,-109,-53,-13,60,42,-53,99,-54,-72,-4,91,-42,88,-79,-4,-66,-4,51,-83,10,-17,53,-114,-10,46,95,67,-88,49,-118,-71,-127,-43,-99,30,75,62,-116,-43,40,97,-111,101, 
  /* [16][0][][] */ -80,-4,111,-71,33,127,-63,44,46,46,-121,72,-29,-59,-58,-72,112,78,95,80,113,81,-47,54,-40,54,-80,70,-106,9,36,11,-120,76,58,59,-42,54,-43,-79,19,-56,72,93,69,104,104,-14,-67,-114,0,111,-46,117,74,54,25,88,68,8,117,119,33,58,52,9,-44,95,52,99,-42,-18,25,110,68,89,-18,101,-122,-21,11,-96,59,4,7,102,103,5,79,9,-8,126,67,-36,-96,19, 
  /* [17][0][][] */ 50,-104,8,93,-4,-127,-49,-90,60,-59,87,64,120,73,-108,60,26,61,64,79,-60,-2,27,-50,12,63,-52,22,84,-32,-6,64,-26,0,41,5,-43,76,-103,-28,-88,-17,8,-12,-22,25,81,-115,75,83,13,45,0,92,58,-79,-110,99,-84,-83,53,-94,45,110,-53,-51,46,-93,-108,23,118,52,23,-124,-84,64,111,-30,45,-31,11,8,-46,-56,-89,64,89,-19,30,64,-111,-122,17,91,14,39, 
  /* [18][0][][] */ -88,99,108,-57,3,-110,-111,27,-7,74,-115,-50,-27,30,58,-40,17,-29,70,-21,99,-52,17,-86,46,-104,-22,110,26,37,-4,47,42,-33,-115,-111,-38,30,-20,62,-47,-6,-56,-14,-122,13,21,-8,13,-29,79,27,-97,0,-1,84,-48,31,-14,-126,82,108,9,33,-69,-127,-37,89,67,-82,-78,107,-85,-30,-96,-111,55,52,-6,-58,-63,-8,-33,-53,100,-39,68,69,-116,-82,-67,110,86,-61,49,-25, 
  /* [19][0][][] */ 16,27,74,36,65,-88,96,91,93,-68,26,-16,-98,30,-62,58,72,-112,111,59,-26,79,-62,10,75,-87,26,-75,-98,-125,-71,45,79,-90,29,-4,5,-75,-61,-109,43,-124,-90,7,-92,27,76,-100,-33,37,-44,44,-40,11,5,-14,22,98,-6,-32,54,-61,102,60,-76,-6,-32,-6,-12,52,74,-55,-69,-127,-58,-87,-28,-121,11,106,57,-123,-35,77,-94,-11,4,-8,89,27,-10,67,-38,115,69,-54, 
  /* [20][0][][] */ -14,75,80,102,-99,109,20,67,14,10,-97,2,-12,92,46,-84,-57,-44,-56,-31,23,-50,-86,-77,83,-83,-117,58,29,9,-48,122,106,45,-16,59,44,-37,-6,-121,-94,-40,-99,-114,-27,-73,-79,117,65,-127,-113,39,54,118,60,6,101,75,104,94,120,-56,-75,-42,-35,-75,-57,14,-90,-86,-79,84,-74,-85,35,20,117,83,119,115,93,2,95,-31,63,124,-20,78,22,102,38,76,21,28,-9,2, 
  /* [21][0][][] */ 98,81,72,-104,100,-81,77,16,-2,-60,-69,45,2,43,-51,-86,-101,-26,19,-24,111,-46,76,-82,61,-83,-29,72,14,8,-3,-18,12,24,-94,-111,115,101,-127,-30,-3,10,32,-10,-100,-79,-76,94,-19,-71,-6,92,34,74,-98,20,-50,58,-45,125,58,-77,16,-7,87,35,-34,-67,-109,1,65,80,39,-29,72,71,-109,-26,65,109,16,106,30,-68,29,-92,70,-80,-105,83,106,-116,-44,-70,73,-25, 
  /* [22][0][][] */ 29,-51,-76,-103,87,-59,103,53,-98,87,-73,-109,113,-107,-114,-82,37,83,-127,-67,87,-73,32,28,88,-6,-112,93,-64,-77,-62,-109,44,61,11,14,4,-16,-62,-117,1,-13,3,94,51,-112,89,-24,-66,-86,5,-16,-70,-87,-50,28,-12,-25,-19,-29,107,-78,-74,-108,-60,18,-113,-51,103,104,-20,-2,-60,-1,64,-89,45,-49,60,91,102,-92,-75,-111,76,82,98,-32,-55,33,-73,38,19,14,-27,100, 
  /* [23][0][][] */ 69,-87,5,61,105,-118,8,-107,61,-77,91,81,24,-103,20,-34,93,-29,-122,90,99,-79,110,-33,-13,-10,89,21,70,54,78,-39,-33,48,22,37,103,-5,-127,10,-104,4,14,-108,-75,-87,119,27,83,-113,-88,-47,82,-56,-59,84,-83,-14,106,51,-108,-95,-51,-3,39,42,-115,-107,60,-9,121,-69,0,-47,-42,-93,51,-18,99,123,-51,-46,23,-100,99,12,121,-17,-89,47,102,-24,112,-52,-27,93, 
  /* [24][0][][] */ -68,-42,-100,-60,-69,-127,-60,-93,71,118,86,51,118,67,-35,-102,-73,48,10,-64,99,-71,-46,-31,54,-23,78,56,101,53,12,-58,-23,15,52,31,-46,-78,46,-14,-65,-88,107,9,18,-28,48,70,-94,-50,-18,24,69,63,61,-74,-1,84,30,9,94,-7,37,100,-94,100,-38,-82,-100,60,-45,-17,-29,27,85,102,64,-66,-94,-74,-70,-82,-57,-101,9,69,-4,-88,30,-97,-1,-84,-8,33,-86,40, 
  /* [25][0][][] */ -79,-55,-82,-10,95,-82,-100,47,43,-101,-34,17,75,3,-111,-17,-73,61,17,-122,69,79,-9,-59,13,-51,-95,29,63,-85,42,112,92,-99,37,69,93,-56,-33,-25,-78,97,-101,4,85,44,68,29,-98,75,-63,12,38,-11,-69,-7,-21,58,-99,73,119,35,44,49,7,74,-18,-22,-98,-4,-19,-103,37,-127,62,20,71,71,12,22,42,53,-56,86,-73,-47,-94,-83,-24,-38,84,14,-105,-33,-28,-81, 
  /* [26][0][][] */ 51,-122,-23,-15,-102,-3,-14,-15,-110,-127,103,83,-79,-52,9,-20,111,26,-71,-63,11,69,96,12,48,60,9,47,13,2,-97,-4,-35,-65,-100,-107,-69,83,-46,107,-102,99,53,28,-72,69,-45,102,-26,29,-7,96,11,-52,-3,-104,95,59,51,21,-2,-95,62,-27,111,-23,-59,54,-87,75,83,94,76,-93,-88,4,43,-112,-100,6,-31,71,84,-80,76,-4,-50,11,-84,111,14,19,-60,115,48,83, 
  /* [27][0][][] */ 9,6,-67,-112,-120,-37,-76,-21,43,104,37,-114,-30,58,86,-34,69,-20,113,-89,-102,10,-33,-27,-113,46,-119,4,77,28,-38,-14,63,70,-98,-95,-97,-72,-121,92,-104,16,27,15,103,23,70,109,94,117,62,-83,-61,-95,-8,-39,109,-29,-122,-86,-64,-60,-38,54,39,-53,-121,110,55,9,-127,6,63,-58,-10,-95,49,-73,92,106,89,-31,122,-64,-82,-91,-38,30,-53,-7,-28,-57,58,17,90,58, 
  /* [28][0][][] */ 100,0,91,48,-124,-74,-106,-81,-45,-111,68,67,-89,-89,1,114,104,123,-96,59,-26,27,-114,-82,-127,91,-91,-71,-89,-84,3,-29,-108,22,84,82,23,-116,-54,36,115,50,-104,61,-126,-5,18,50,29,-83,-91,-32,-102,29,49,29,66,-7,92,61,-5,-53,-103,9,69,81,-22,92,-100,26,-107,-42,84,21,-3,-106,-121,-66,-93,50,-85,-95,114,-26,68,-118,76,-88,-112,-74,-47,-93,-44,46,-104,-77, 
  /* [29][0][][] */ 50,52,58,-59,-97,17,-127,7,99,-20,-98,-102,105,-114,-52,-54,-107,102,38,-57,-83,-40,52,3,-40,3,-51,-28,-106,-12,103,-6,49,-4,-87,-61,-15,104,-2,95,47,107,-52,82,0,105,-61,-28,15,-5,56,-104,74,-109,118,52,-101,53,-56,108,-127,102,-101,-59,-69,-71,51,89,100,-95,30,-80,111,88,64,22,115,-70,-35,29,-9,-92,-12,-86,62,117,40,77,-42,97,77,88,-113,15,-6,56, 
  /* [30][0][][] */ 41,-44,-36,55,-55,35,-39,2,127,15,20,-11,-87,38,77,35,6,54,90,-71,49,-72,-80,32,-68,36,-43,118,7,-78,-53,32,-55,-39,-87,-38,30,11,9,38,105,-36,4,114,119,-12,119,76,-43,80,52,-66,91,-23,16,115,-57,-63,-40,-29,-73,30,-52,-17,-57,-53,-68,93,-40,109,43,-8,-69,121,50,-64,-41,-46,-52,-32,43,61,-98,13,-76,39,-82,120,-26,-83,85,83,-15,9,14,-58, 
  /* [31][0][][] */ 82,-92,40,100,55,68,-61,-96,-33,-19,-81,-87,106,-127,-47,113,-61,-94,42,60,64,37,-31,110,47,-111,36,43,-71,-71,48,114,17,19,-94,-3,101,-31,-47,-115,62,-69,-30,35,7,-56,-40,27,72,29,101,-29,-118,-61,-80,31,-121,67,7,116,-41,1,92,-79,85,115,-46,-83,80,-119,-123,11,-100,-34,14,7,-59,-47,51,90,-77,-45,61,73,58,100,-98,18,18,-55,-88,-49,12,112,-5,-24, 
};
const TfArray<4, int> tensor_dimension5 = { 4, { 32,1,1,96 } };
const TfArray<32, float> quant5_scale = { 32, { 0.0017904655542224646, 0.001761702005751431, 0.0017740717157721519, 0.0017816743347793818, 0.0017752927960827947, 0.0017276545986533165, 0.0017755843000486493, 0.0017233076505362988, 0.0017962201964110136, 0.0019200671231374145, 0.001787127461284399, 0.0017595270182937384, 0.0017650267109274864, 0.0017730955732986331, 0.0018318969523534179, 0.0018531729001551867, 0.0016931594582274556, 0.0020899274386465549, 0.001764519140124321, 0.0017452558968216181, 0.0016525258542969823, 0.0018041236326098442, 0.0018809844041243196, 0.0017971419729292393, 0.0019118289928883314, 0.0019179106457158923, 0.0018167649395763874, 0.001701855449937284, 0.0016717355465516448, 0.0017370694549754262, 0.0020254997070878744, 0.001787716755643487, } };
const TfLiteAffineQuantization quant5 = { (TfLiteFloatArray*)&quant5_scale, (TfLiteIntArray*)&g0::quant4_zero, 0 };
const MODEL_SECTION(EI_MODEL_SECTION) ALIGN(16) int32_t tensor_data6[96] = { -2121, 4121, 8294, 2999, -3856, -4003, 25239, 2555, 3134, -2144, 11382, -220, -9669, 2821, 22609, 7855, 12650, 7286, -5194, -8288, 5293, 48015, 28294, 18100, 1309, 901, 5335, 3261, 2735, -5114, 8178, -3410, -414, 4744, 25, 1196, 10180, 6376, -2008, 6418, 10570, 6191, 4769, 15959, 6442, 5186, 2066, 9063, 4994, -5352, -8361, 614, -319, -1280, 3657, -9, 211, -1273, -4130, 17662, -1071, 1428, -1461, -2344, -3120, 8895, 30769, 2497, -3107, 889, 1794, 2435, 1873, -1376, 697, 12213, -599, 24601, 20000, -862, 10227, 2019, -501, 1458, 13897, 9408, 5609, 1657, 6359, 4797, -490, -10247, 939, -1986, -1833, -1972, };
const TfArray<1, int> tensor_dimension6 = { 1, { 96 } };
const TfArray<96, float> quant6_scale = { 96, { 0.00029252906097099185, 0.00037756658275611699, 0.00028745824238285422, 0.0002959031262435019, 0.00027139272424392402, 0.0003659596259240061, 0.00013206891890149564, 0.00027697643963620067, 0.00018783904670272022, 0.0003089933015871793, 0.00017548589676152915, 0.0003016394330188632, 0.00026259201695211232, 0.0010086661204695702, 0.00013727434270549566, 0.00014817160263191909, 0.00014681734319310635, 0.00019709025218617171, 0.00037393945967778563, 0.00020685938943643123, 0.00011655654816422611, 5.6065946409944445e-05, 0.00010865736840059981, 9.0756700956262648e-05, 0.00014068141172174364, 0.00051734334556385875, 0.00055973499547690153, 0.0003295086498837918, 0.00019252230413258076, 0.00038390493136830628, 0.00018063001334667206, 0.00022715670638717711, 0.0001715496473480016, 0.00024541481980122626, 0.00030996426357887685, 0.0002126507752109319, 0.00018628896214067936, 0.00016674424114171416, 0.00030081471777521074, 0.00027405750006437302, 0.00012031597725581378, 0.00041659240378066897, 0.00031618119101040065, 0.00014475616626441479, 0.00029693363467231393, 0.00019260600674897432, 0.0002505783922970295, 0.00023822410730645061, 0.00026618741685524583, 0.00024752956232987344, 0.00018760740931611508, 0.00018137982988264412, 0.00041870295535773039, 0.00023167722974903882, 0.0002131792571162805, 0.00029236008413136005, 0.00044146331492811441, 0.00022097156033851206, 0.00036991335218772292, 0.00010393113916506991, 0.00070732447784394026, 0.00045501958811655641, 0.00020206836052238941, 0.00032862229272723198, 0.00059544341638684273, 0.00021657384058926255, 7.0231493737082928e-05, 0.00014920014655217528, 0.00037307292222976685, 0.00037646543933078647, 0.00022839001030661166, 0.00021226670651230961, 0.00071399047737941146, 0.00030502144363708794, 0.00023968495952431113, 0.00017581775318831205, 0.00023419529316015542, 7.6065727625973523e-05, 9.0827335952781141e-05, 0.00023391783179249614, 0.00014222906611394137, 0.00016903657524380833, 0.0001490716531407088, 0.00017761629715096205, 0.00013002450577914715, 0.00025254054344259202, 0.00041753725963644683, 0.00016541314835194498, 0.00010882500646403059, 0.00042547154589556158, 0.00019459014583844692, 0.00019361563317943364, 0.00024748884607106447, 0.00052278541261330247, 0.00033566859201528132, 0.00020747241796925664, } };
const TfArray<96, int> quant6_zero = { 96, { 0,0,0,0,0,0,0,0,0,0,0,0,0,0,0,0,0,0,0,0,0,0,0,0,0,0,0,0,0,0,0,0,0,0,0,0,0,0,0,0,0,0,0,0,0,0,0,0,0,0,0,0,0,0,0,0,0,0,0,0,0,0,0,0,0,0,0,0,0,0,0,0,0,0,0,0,0,0,0,0,0,0,0,0,0,0,0,0,0,0,0,0,0,0,0,0 } };
const TfLiteAffineQuantization quant6 = { (TfLiteFloatArray*)&quant6_scale, (TfLiteIntArray*)&quant6_zero, 0 };
const MODEL_SECTION(EI_MODEL_SECTION) ALIGN(16) int8_t tensor_data7[96*1*1*16] = { 
  /* [0][0][][] */ -26,105,-7,-127,-50,-34,-26,-61,-25,22,-3,73,26,-49,-12,55, 
  /* [1][0][][] */ -31,27,-54,2,-21,-17,18,-80,65,54,-64,23,-1,2,35,-127, 
  /* [2][0][][] */ 9,19,-24,40,53,32,-64,-69,127,-35,-10,19,-22,74,-55,7, 
  /* [3][0][][] */ 32,-46,-5,-103,-4,-39,4,11,92,-6,76,28,3,39,19,127, 
  /* [4][0][][] */ -98,47,6,42,-2,-30,6,59,-8,14,19,-35,-127,-19,-13,40, 
  /* [5][0][][] */ 9,56,120,14,27,70,-79,78,-47,76,-30,-26,32,-43,-127,20, 
  /* [6][0][][] */ 24,-58,105,-127,27,-9,-30,105,-82,-105,59,-43,14,83,-14,88, 
  /* [7][0][][] */ 32,127,-34,-49,83,11,10,-46,117,100,-26,14,23,-30,66,41, 
  /* [8][0][][] */ 12,-75,11,-79,23,-53,15,-77,23,60,70,-8,13,127,70,54, 
  /* [9][0][][] */ 12,-25,1,127,46,-3,33,-64,-54,101,27,-14,-10,-57,-12,-13, 
  /* [10][0][][] */ -2,18,-60,-127,-7,-22,7,51,18,-27,22,-40,-21,-31,2,53, 
  /* [11][0][][] */ -5,17,17,-20,69,-34,87,-47,-87,33,3,19,8,127,-69,-22, 
  /* [12][0][][] */ 49,-14,-127,-15,18,-69,42,22,3,73,-59,-45,-48,103,1,35, 
  /* [13][0][][] */ -21,10,-28,7,0,-127,1,19,0,-10,11,-3,15,-16,14,14, 
  /* [14][0][][] */ 17,-36,93,-43,56,-3,-127,-110,-31,-57,39,10,19,-74,-13,-25, 
  /* [15][0][][] */ -81,5,-21,-53,-1,-1,127,41,-29,34,62,-26,16,63,68,20, 
  /* [16][0][][] */ 25,48,127,84,6,16,80,69,-79,6,-68,-1,12,15,15,-63, 
  /* [17][0][][] */ -37,-121,-11,31,-70,-24,-68,10,-127,-37,12,-43,-8,46,69,-46, 
  /* [18][0][][] */ 11,38,8,71,51,3,16,-10,78,41,-34,-34,23,127,66,26, 
  /* [19][0][][] */ 11,-12,31,26,92,14,-90,-54,-98,-84,-53,-127,-20,-42,-15,-48, 
  /* [20][0][][] */ 101,-19,-69,-35,0,-127,20,37,-69,39,-105,-30,22,3,17,-2, 
  /* [21][0][][] */ 112,-39,112,-8,-2,4,-32,113,6,-127,74,58,-16,121,57,86, 
  /* [22][0][][] */ -39,38,-52,127,-72,-4,109,66,-22,21,-7,31,11,7,38,10, 
  /* [23][0][][] */ 49,10,119,-83,77,18,-27,39,24,21,-8,-3,9,-20,-127,8, 
  /* [24][0][][] */ -127,42,16,-16,8,113,23,-27,1,20,102,-5,-85,19,62,-33, 
  /* [25][0][][] */ 24,20,17,21,16,13,58,-52,0,-127,-17,-14,-8,-26,8,17, 
  /* [26][0][][] */ -45,0,-7,4,-58,-12,-33,-29,-120,-31,5,-41,14,127,-33,59, 
  /* [27][0][][] */ -1,27,11,74,46,-25,-25,-37,65,6,-29,5,3,127,-6,9, 
  /* [28][0][][] */ 9,88,56,59,127,-15,44,47,-108,-36,-50,-45,28,108,46,-26, 
  /* [29][0][][] */ -5,-6,3,12,24,-2,13,37,-24,-15,-10,-127,4,-18,-14,10, 
  /* [30][0][][] */ -27,83,-56,73,-47,-23,49,-127,-52,54,-14,-9,65,45,76,94, 
  /* [31][0][][] */ -33,-21,-6,-68,2,6,-59,-115,28,81,-20,-127,-41,-46,0,16, 
  /* [32][0][][] */ -127,-79,-5,67,61,42,-20,2,3,-48,-113,53,70,6,64,67, 
  /* [33][0][][] */ -19,-34,-52,-2,-106,-16,-80,6,61,17,21,-60,42,-117,127,38, 
  /* [34][0][][] */ 56,-11,71,29,51,19,-54,81,-80,-45,65,26,9,-17,-19,127, 
  /* [35][0][][] */ -49,54,-85,15,-20,-27,39,-119,85,107,-86,-4,12,-15,90,-127, 
  /* [36][0][][] */ -8,25,22,127,48,31,96,10,1,33,-41,1,-21,25,-60,-62, 
  /* [37][0][][] */ 12,-15,21,-61,10,8,-50,-60,-72,-19,-6,0,-6,-127,60,-49, 
  /* [38][0][][] */ 37,96,-17,-54,127,-3,41,-35,114,78,-10,-6,13,-34,56,19, 
  /* [39][0][][] */ -26,65,-3,-127,-9,16,-53,29,53,-76,-32,-13,10,82,40,24, 
  /* [40][0][][] */ 7,-27,30,-81,10,1,-19,-48,-110,5,-21,-15,-14,-127,81,-81, 
  /* [41][0][][] */ -2,-22,-37,-15,8,-28,11,-13,-23,8,-51,-3,-127,15,24,29, 
  /* [42][0][][] */ 127,67,-20,-29,-61,-49,-24,-56,11,13,84,-39,-55,51,104,-105, 
  /* [43][0][][] */ 1,110,-64,4,84,-5,103,-59,71,76,-61,11,11,-127,-92,-76, 
  /* [44][0][][] */ -17,-15,15,-34,67,7,-100,-127,-11,-6,8,13,-11,-33,64,-71, 
  /* [45][0][][] */ 1,35,-127,-41,40,-81,13,-92,21,22,-3,-69,16,-40,75,-35, 
  /* [46][0][][] */ 2,0,-24,-86,-18,10,26,-26,-127,-17,11,8,-6,-125,63,-28, 
  /* [47][0][][] */ 25,46,26,-13,127,-13,-30,12,-49,36,-2,24,1,3,106,-30, 
  /* [48][0][][] */ -127,-72,-20,41,63,20,12,-11,0,-20,-109,43,67,14,66,52, 
  /* [49][0][][] */ 18,5,94,79,127,-4,36,24,-106,-44,-39,-68,12,108,27,-59, 
  /* [50][0][][] */ 22,-16,-96,-15,21,-127,-31,-7,-24,-20,6,-50,40,-21,-2,20, 
  /* [51][0][][] */ 0,37,34,11,19,-5,9,34,-127,59,12,-118,19,-105,-19,88, 
  /* [52][0][][] */ -7,52,-8,44,30,-17,38,40,50,82,-15,-61,36,127,59,39, 
  /* [53][0][][] */ -4,-48,-27,-13,-99,-15,-77,3,44,27,19,-66,36,-127,120,19, 
  /* [54][0][][] */ 61,-23,-36,13,127,70,-119,-47,-69,-12,-31,-65,-6,-36,-12,-38, 
  /* [55][0][][] */ 41,-3,0,-2,30,-39,-58,-127,-38,-66,-56,3,-3,-30,19,-5, 
  /* [56][0][][] */ -14,16,29,-19,-2,-23,-102,68,-6,127,-8,-10,28,8,-6,4, 
  /* [57][0][][] */ 4,25,-43,-18,-50,-51,122,96,-24,26,-16,2,24,30,127,-14, 
  /* [58][0][][] */ 35,17,-127,25,79,92,-24,58,-106,-28,4,0,-27,17,3,-15, 
  /* [59][0][][] */ -91,72,108,25,-67,-54,114,127,25,11,22,-11,10,16,64,-7, 
  /* [60][0][][] */ 12,-3,-46,2,25,-127,-28,-7,-4,-15,-9,-16,23,-20,-2,1, 
  /* [61][0][][] */ 14,-8,22,127,70,24,31,10,-102,2,16,34,-5,19,33,-52, 
  /* [62][0][][] */ -47,127,22,-44,-24,-7,-74,55,-18,-61,-90,-52,-12,-101,-58,-44, 
  /* [63][0][][] */ -51,24,-35,127,-90,8,-66,-30,-76,-23,-23,-44,21,68,47,51, 
  /* [64][0][][] */ 5,-4,-2,35,-2,4,-8,64,20,8,-13,-46,-8,-127,53,2, 
  /* [65][0][][] */ -25,-24,1,-127,32,-44,71,-27,-20,52,14,-123,-6,-2,22,-39, 
  /* [66][0][][] */ 49,-23,85,-18,15,11,-20,107,21,-71,40,51,-17,127,15,72, 
  /* [67][0][][] */ -2,68,-11,-127,-5,9,-73,41,96,-100,-42,-2,32,91,69,27, 
  /* [68][0][][] */ -35,44,127,11,4,2,-1,3,-49,-29,-21,-42,21,-20,89,-29, 
  /* [69][0][][] */ 127,98,-25,-10,-105,-47,-20,-29,-6,25,98,-71,-61,56,68,-95, 
  /* [70][0][][] */ 36,4,-62,-16,-34,23,63,127,-41,89,-31,0,16,62,-24,26, 
  /* [71][0][][] */ 14,-9,-2,7,10,-77,-4,17,-28,11,-79,12,-127,3,44,43, 
  /* [72][0][][] */ 14,29,-127,20,17,22,21,105,-36,-23,1,-2,23,22,-8,-3, 
  /* [73][0][][] */ -54,30,38,3,44,-36,-76,-127,16,-81,36,-22,20,-51,39,-17, 
  /* [74][0][][] */ 5,35,41,127,24,-3,-85,76,-62,11,-48,49,18,-114,31,-95, 
  /* [75][0][][] */ -6,36,-43,16,21,6,11,-24,127,25,-11,7,3,121,-43,-8, 
  /* [76][0][][] */ 4,-13,1,22,6,-18,-16,66,20,-30,-24,-127,-9,-3,5,10, 
  /* [77][0][][] */ -24,45,-11,127,-49,49,79,115,27,26,-11,40,3,-12,-22,-19, 
  /* [78][0][][] */ 7,16,25,-100,35,-29,-29,42,24,-54,11,-32,26,127,15,44, 
  /* [79][0][][] */ -28,-81,-79,-47,-88,-1,26,-78,127,17,23,57,31,46,38,-51, 
  /* [80][0][][] */ -33,-1,127,-84,34,-16,1,-110,-52,46,-60,-96,18,103,77,-63, 
  /* [81][0][][] */ -50,39,-127,22,62,-117,-8,59,-10,-40,67,-7,30,0,14,2, 
  /* [82][0][][] */ 127,-11,-10,12,8,-122,-15,17,-24,-15,-102,-10,115,8,-1,31, 
  /* [83][0][][] */ -41,79,-126,-84,-43,-23,55,-121,61,57,-46,-127,11,46,50,103, 
  /* [84][0][][] */ -23,43,75,-27,15,-16,50,-127,-31,39,-20,-49,23,58,55,-15, 
  /* [85][0][][] */ -77,127,31,-114,-67,-24,-31,-10,-49,-7,-72,28,1,-6,-96,-33, 
  /* [86][0][][] */ -12,23,-37,9,-34,-26,127,30,-6,-24,-9,4,8,34,73,-15, 
  /* [87][0][][] */ -22,-36,7,-119,16,-26,44,-22,-6,15,-16,-127,-19,7,4,-44, 
  /* [88][0][][] */ 95,-31,54,-12,38,-109,-7,22,-41,24,-127,-39,47,26,92,-6, 
  /* [89][0][][] */ 30,-29,-34,-48,32,-10,-31,-14,-41,1,29,-59,127,-1,24,-49, 
  /* [90][0][][] */ -9,-42,34,-69,58,-4,-62,89,53,-95,-39,-32,-5,127,17,-121, 
  /* [91][0][][] */ -44,-13,-19,-51,25,-11,-38,-109,12,63,0,-127,-39,-12,4,6, 
  /* [92][0][][] */ -27,24,36,13,-4,-127,17,5,-3,-23,4,-18,6,-25,21,10, 
  /* [93][0][][] */ 40,-24,127,-8,-46,56,26,-35,-17,33,-67,-22,-30,-6,28,2, 
  /* [94][0][][] */ 22,5,-18,-21,20,-1,-9,-1,-34,-14,19,-60,127,-18,29,-26, 
  /* [95][0][][] */ 127,91,3,37,-83,-7,-69,1,-20,-22,80,-37,-44,32,71,-75, 
};
const TfArray<4, int> tensor_dimension7 = { 4, { 96,1,1,16 } };
const TfArray<96, float> quant7_scale = { 96, { 0.00085760391084477305, 0.0011069073807448149, 0.00084273784887045622, 0.00086749566253274679, 0.00079563877079635859, 0.0010728794150054455, 0.00038718487485311925, 0.00081200851127505302, 0.00055068545043468475, 0.00090587191516533494, 0.00051446986617520452, 0.00088431267067790031, 0.00076983787585049868, 0.0029570942278951406, 0.00040244552656076849, 0.00043439288856461644, 0.0004304226313252002, 0.00057780713541433215, 0.001096273772418499, 0.00060644716722890735, 0.00034170743310824037, 0.00016436785517726094, 0.0003185494861099869, 0.00026607033214531839, 0.00041243399027734995, 0.0015166893135756254, 0.001640968257561326, 0.0009660165524110198, 0.00056441529886797071, 0.0011254894779995084, 0.00052955083083361387, 0.00066595256794244051, 0.00050293002277612686, 0.00071947963442653418, 0.00090871850261464715, 0.00062342570163309574, 0.00054614112013950944, 0.00048884208081290126, 0.00088189489906653762, 0.0008034510537981987, 0.00035272890818305314, 0.0012213189620524645, 0.00092694454360753298, 0.00042437989031895995, 0.00087051675654947758, 0.00056466070236638188, 0.00073461764259263873, 0.00069839874049648643, 0.00078037846833467484, 0.00072567944880574942, 0.00055000639986246824, 0.00053174904314801097, 0.0012275064364075661, 0.00067920534638687968, 0.00062497507315129042, 0.00085710856365039945, 0.0012942326720803976, 0.00064781965920701623, 0.0010844705393537879, 0.00030469367629848421, 0.0020736546721309423, 0.0013339754659682512, 0.00059240136761218309, 0.00096341804601252079, 0.0017456542700529099, 0.00063492689514532685, 0.00020589682389982045, 0.00043740824912674725, 0.0010937333572655916, 0.001103679183870554, 0.00066956825321540236, 0.00062229973264038563, 0.0020931973122060299, 0.00089422764722257853, 0.00070268148556351662, 0.00051544280722737312, 0.00068658753298223019, 0.0002230009704362601, 0.00026627740589901805, 0.00068577408092096448, 0.00041697124834172428, 0.00049556250451132655, 0.00043703155824914575, 0.00052071554819121957, 0.00038119129021652043, 0.00074037007289007306, 0.0012240889482200146, 0.00048493975191377103, 0.00031904096249490976, 0.0012473497772589326, 0.00057047756854444742, 0.00056762062013149261, 0.00072556006489321589, 0.0015326436841860414, 0.00098407559562474489, 0.00060824438696727157, } };
const TfLiteAffineQuantization quant7 = { (TfLiteFloatArray*)&quant7_scale, (TfLiteIntArray*)&g0::quant6_zero, 0 };
const MODEL_SECTION(EI_MODEL_SECTION) ALIGN(16) int32_t tensor_data8[16] = { -7897, 12944, -16789, -2204, -7356, 12116, 31523, -54166, -1597, 22114, 24033, 19273, -12729, 14118, -10382, 12877, };
const TfArray<1, int> tensor_dimension8 = { 1, { 16 } };
const TfArray<16, float> quant8_scale = { 16, { 0.0007137265638448298, 0.00044569876627065241, 0.00020518795645330101, 0.00024522014427930117, 0.00035402626963332295, 0.00032586709130555391, 0.00032820337219163775, 0.00028988072881475091, 0.00036106683546677232, 0.00024300870427396148, 0.00070832273922860622, 0.00055071816314011812, 0.0004008288960903883, 0.00021685368847101927, 0.0005076127708889544, 0.00053879193728789687, } };
const TfArray<16, int> quant8_zero = { 16, { 0,0,0,0,0,0,0,0,0,0,0,0,0,0,0,0 } };
const TfLiteAffineQuantization quant8 = { (TfLiteFloatArray*)&quant8_scale, (TfLiteIntArray*)&quant8_zero, 0 };
const MODEL_SECTION(EI_MODEL_SECTION) ALIGN(16) int8_t tensor_data9[16*1*1*96] = { 
  /* [0][0][][] */ -19,-15,1,-35,12,-10,-40,0,19,5,-8,7,-10,-13,-26,10,-5,5,-6,2,14,-36,4,8,0,16,7,127,30,-41,46,-14,-4,2,3,-1,-6,16,-37,-8,-14,3,-4,41,8,20,11,7,23,6,-13,4,14,-18,-16,87,7,8,-33,-33,-7,21,-5,-23,-38,-65,-20,33,6,7,19,-15,-4,-34,-9,-26,-23,13,3,0,-9,-31,26,19,-6,-13,-6,-99,-1,-19,10,-8,51,-28,-32,-13, 
  /* [1][0][][] */ 34,-64,-62,-48,127,-9,56,28,-19,-83,-59,-10,5,4,-53,30,-59,0,48,32,29,42,-7,-55,20,-6,-16,-60,34,-22,-62,39,-14,28,-2,-9,2,-13,0,17,-23,35,-31,-24,-28,74,17,15,15,-60,18,-31,-26,40,56,11,-44,-23,-36,-31,19,-22,11,-41,-82,89,-23,-25,-4,-26,-28,17,44,-94,-26,11,30,-42,44,14,9,-18,25,4,-53,31,-20,25,29,-36,-9,14,20,1,28,89, 
  /* [2][0][][] */ 2,56,-96,-17,79,77,21,66,3,-104,10,-7,1,-8,17,32,6,-8,-58,71,21,3,74,26,41,22,-4,-43,28,-17,44,-66,26,44,-36,29,-127,-78,35,24,11,-58,24,-26,28,-41,-8,51,-35,15,-42,1,89,-2,-17,47,38,2,40,13,15,15,24,-21,26,5,-39,-3,-48,0,-21,-43,-36,-76,3,50,78,40,38,-21,36,-55,14,-21,-38,21,15,48,-28,32,15,-28,-6,-36,-66,2, 
  /* [3][0][][] */ 63,17,90,-17,41,-35,20,-7,-20,-54,21,-39,1,36,41,101,26,-11,22,1,127,-19,37,21,48,-8,-15,13,24,40,-1,78,-95,10,27,-6,-17,-20,-10,38,-74,-32,63,25,30,46,-41,-83,-53,-25,-59,27,1,-119,-8,29,-108,73,41,44,16,96,-13,-47,34,72,2,-47,22,-21,7,-53,47,-30,45,-13,17,-12,43,41,-34,-81,15,-14,-33,16,27,31,19,16,20,28,38,108,36,-30, 
  /* [4][0][][] */ 19,-6,26,-12,127,35,-3,-12,-46,-38,-42,-39,-52,23,-3,47,31,-86,-32,76,-18,-3,30,-20,3,0,18,-43,13,-9,60,-35,93,1,-17,19,34,11,0,17,-35,-5,-36,-18,-9,-41,-7,8,46,14,-23,-2,2,-42,8,-22,18,-4,-41,23,4,61,64,16,35,40,-14,1,-54,6,54,67,10,-71,-37,-34,21,38,73,-35,-23,-38,1,-4,-68,12,32,37,-45,29,-4,-47,11,22,24,-19, 
  /* [5][0][][] */ 3,-15,-8,12,31,-18,40,-19,-32,-29,-14,0,-6,33,-1,10,-3,-13,23,-12,35,4,-43,63,19,4,16,-114,0,35,14,38,3,-4,12,-60,21,17,-16,19,-19,-4,24,-14,-13,6,11,-22,-11,-14,12,-27,8,-35,-1,-55,-11,24,-30,11,79,22,5,28,-12,55,10,88,1,98,23,40,4,5,0,72,-37,-4,13,16,-24,-8,-3,25,-12,24,-21,127,5,26,-10,-7,6,22,-58,23, 
  /* [6][0][][] */ 35,-95,18,-34,-21,9,36,14,17,-20,-13,-69,-37,-7,-38,40,8,4,-9,4,-46,54,16,18,-32,-15,-15,-18,-27,16,49,-6,55,22,61,-10,0,-7,32,-114,-21,101,11,-48,21,-33,-33,22,-27,28,-31,85,-37,-70,-18,-12,16,-77,-2,6,-24,57,40,-80,39,-23,10,-30,2,9,127,-9,-38,17,-42,35,-81,-15,27,1,53,48,33,-7,-37,-12,49,35,12,7,60,-46,-25,-19,-30,-17, 
  /* [7][0][][] */ 7,127,40,14,125,44,36,-41,-16,-43,46,-5,-22,25,10,34,16,-23,-8,35,43,-21,37,16,-13,9,10,8,16,-22,15,14,35,8,-50,5,27,17,4,72,-48,23,25,14,-10,-30,19,-16,-43,-33,27,2,23,-40,-40,52,52,-5,-5,4,-20,-50,0,2,-46,76,-34,-94,-7,-31,-18,51,-9,-23,13,22,64,51,49,-20,-33,-38,-11,-10,-23,51,-4,1,-39,34,-27,-40,-46,-21,27,-9, 
  /* [8][0][][] */ -1,-5,59,13,-127,-24,36,-14,30,100,61,10,-14,15,33,14,-47,16,9,2,-39,-4,-105,59,18,-37,52,-21,-1,11,6,48,70,-16,0,-10,-22,-9,1,33,4,-38,38,4,-38,-6,41,-7,-95,11,13,22,-53,-34,-31,35,16,-51,-91,-13,16,-37,-36,-7,12,77,-8,-54,14,-20,-39,-17,43,55,48,-9,-30,-45,-11,19,-98,6,-24,-10,25,19,66,36,23,-42,49,47,-2,1,44,18, 
  /* [9][0][][] */ 3,-121,-10,23,89,89,-31,-16,25,-27,89,86,-19,11,104,-101,16,-31,-2,23,-62,-59,43,-19,-22,6,-2,16,-27,4,2,-10,25,22,-115,24,-9,14,-25,72,17,-83,-32,72,-5,-23,-72,-41,35,24,-24,-83,64,27,-8,-49,-12,100,-22,-2,26,-56,-25,127,-92,-25,-10,-16,-11,16,-49,-64,42,-3,5,23,58,-68,29,10,-22,-20,1,33,1,-65,19,-20,6,-52,-64,42,-66,-14,1,-45, 
  /* [10][0][][] */ -42,-22,-38,-45,-26,-9,65,-29,40,11,34,41,26,-15,-12,1,-11,29,-33,-14,-4,38,14,25,-15,-15,11,-127,23,-51,60,-40,-5,25,-10,-11,-1,37,7,-11,15,-38,23,-56,14,-9,23,14,-12,32,-31,-20,-44,-21,-10,-52,26,8,1,-38,20,5,-4,14,-31,94,-17,-36,20,-28,-7,-24,-25,-5,17,63,0,34,-15,14,-14,-4,7,22,5,-24,-3,123,-8,0,19,9,24,-39,44,-40, 
  /* [11][0][][] */ -93,18,15,6,20,-66,-22,-2,-51,-5,2,18,32,20,-16,-5,48,3,-68,-53,26,-6,-8,0,79,9,70,-8,-25,32,-39,18,-11,14,-14,-17,-7,6,20,7,-28,-10,4,4,86,14,78,11,52,46,-14,36,20,-65,19,-8,-78,-17,-42,-42,-6,-14,-6,23,0,-21,33,-1,21,13,-2,38,-23,11,23,5,-21,79,-127,66,-45,-1,-71,-75,122,19,43,-8,13,42,-31,-65,-28,48,-33,-4, 
  /* [12][0][][] */ -7,-9,-32,9,69,19,9,-19,-17,22,17,-7,2,-14,27,-5,-34,-11,19,-6,-13,-9,-30,52,-13,33,-17,103,-13,41,-41,10,-9,27,8,28,-22,-20,21,8,5,-7,2,1,-16,-5,15,18,-10,-7,8,-24,-20,7,-9,-19,-10,-17,18,17,-9,-17,-6,42,34,-70,8,57,-28,-127,-11,54,1,13,13,76,1,-15,-3,9,5,29,-36,5,13,-15,-7,-37,3,17,16,3,-33,35,-13,14, 
  /* [13][0][][] */ -71,53,-10,1,-63,0,-11,4,-27,-41,53,35,87,5,-26,5,-22,41,-51,2,19,3,60,-49,57,26,0,-4,2,-30,-28,-101,-107,-21,-6,-1,4,36,50,-28,-27,80,13,8,48,1,-23,13,52,-21,33,87,57,-67,75,-16,-9,40,42,8,1,22,-21,30,11,-13,10,-2,20,23,6,-127,20,-18,-89,18,62,35,-39,-50,106,-21,7,-34,29,-43,92,18,-29,-9,-10,19,35,-47,-12,7, 
  /* [14][0][][] */ -28,17,-16,-49,43,3,-14,26,-85,3,17,16,-31,-56,-82,-23,-80,-11,76,13,29,4,27,-96,-42,10,-56,-16,14,-23,-9,-38,-69,-19,27,15,-17,-1,10,-1,16,84,-72,-19,-54,17,8,7,127,-24,32,-12,29,52,-100,27,-19,25,-92,10,7,32,47,27,4,27,-7,4,-42,28,57,37,33,8,-24,25,56,-72,-29,-98,24,-30,20,48,33,-68,-44,9,-43,30,36,55,15,33,15,-24, 
  /* [15][0][][] */ -33,-87,-17,-44,1,5,-11,-74,-17,5,3,-24,47,-21,43,-11,-96,4,-26,20,-20,14,-65,-39,-17,-3,-5,15,-26,-23,71,-101,-14,36,15,1,-1,30,-92,-4,26,-79,7,21,-22,-56,48,31,44,11,-14,-127,-13,53,-7,44,47,-18,-19,49,0,-8,40,3,10,-4,-16,-16,-22,19,-2,32,-35,12,-6,-28,-25,-16,15,5,8,37,-5,69,-21,-52,-31,-23,-51,57,38,78,-43,-10,6,-13, 
};
const TfArray<4, int> tensor_dimension9 = { 4, { 16,1,1,96 } };
const TfArray<16, float> quant9_scale = { 16, { 0.030333377420902252, 0.018942197784781456, 0.0087204882875084877, 0.010421856306493282, 0.015046115964651108, 0.013849351555109024, 0.013948643580079079, 0.012319930829107761, 0.015345340594649315, 0.010327870026230812, 0.030103716999292374, 0.023405520245432854, 0.01703522726893425, 0.0092162815853953362, 0.021573541685938835, 0.022898657247424126, } };
const TfLiteAffineQuantization quant9 = { (TfLiteFloatArray*)&quant9_scale, (TfLiteIntArray*)&g0::quant8_zero, 0 };
const MODEL_SECTION(EI_MODEL_SECTION) ALIGN(16) int32_t tensor_data10[96] = { 20590, 61530, -1560, 343, 15659, -5899, 32, 674, 5940, 16064, -5321, -490, 748, 5480, 5337, -9315, -4381, 328, -210, 20286, -11064, 15702, -3361, 6565, 31081, -205, -4410, 18353, 14004, -19597, 1714, 21340, 23390, -10600, 2798, 352, -31, -1308, 3582, -7789, -5217, -940, -8729, -112, 30162, -433, 12927, -1883, -14767, 1782, -35, -269, -1953, 19570, -3771, 15299, 18917, 262, 32125, 372, -8667, -1061, 1632, -324, -2489, 14665, -2202, -5163, -3784, 3777, -63, -4048, 1187, -271, -2092, -6347, 356, -1955, 46002, -7169, -5934, -10736, -719, -711, 65837, -13348, -9986, -27898, -7079, 9976, -2546, 34089, -293, -2018, -3152, 690, };
const TfArray<96, float> quant10_scale = { 96, { 0.00011264388740528375, 9.2510956164915115e-05, 0.00011113383516203612, 0.00023430315195582807, 0.00020717096049338579, 0.00014808266132604331, 6.2335624534171075e-05, 8.4472325397655368e-05, 0.00025081029161810875, 0.00015182769857347012, 0.00022759167768526822, 0.00011165478645125404, 0.00026944375713355839, 0.00020433020836208016, 0.00036607915535569191, 0.00016061135102063417, 0.00020808819681406021, 0.00016510143177583814, 0.00016650237375870347, 5.1094542868668213e-05, 7.4773401138372719e-05, 4.2087707697646692e-05, 0.00012562928895931691, 0.0001062391311279498, 7.7454402344301343e-05, 8.8854045316111296e-05, 0.00017997882969211787, 0.0001622015843167901, 7.5786512752529234e-05, 0.00044840789632871747, 0.00037480334867723286, 0.00024269666755571961, 0.0001354482228634879, 0.00014402245869860053, 0.00020520453108474612, 0.00050840701442211866, 0.00038122688420116901, 0.00014738782192580402, 0.0002232848055427894, 0.00010895491868723184, 0.00022036801965441555, 0.0001972303434740752, 0.00033765158150345087, 7.9425757576245815e-05, 0.0004304662870708853, 9.4692564744036645e-05, 0.0001067239572876133, 0.00025517004542052746, 0.00071487430250272155, 0.00010141608800040558, 0.00052232044981792569, 0.00016260852862615138, 0.0002692549314815551, 0.00014285423094406724, 0.00023168275947682559, 0.00011896960495505482, 0.00014673540135845542, 0.00037004821933805943, 5.4693060519639403e-05, 0.00015764895942993462, 0.00029502584948204458, 0.00026414296007715166, 0.00012010550562990829, 0.00015218320186249912, 0.00011740684567485005, 0.00012495722330641001, 0.00022397869906853884, 0.00042729591950774193, 0.000184515884029679, 0.00012015628453809768, 0.00017469449085183442, 9.5134899311233312e-05, 0.00029893219470977783, 0.00014540061238221824, 0.00036534396349452436, 0.00029592783539555967, 0.00011469102901173756, 8.4790648543275893e-05, 5.6255008530570194e-05, 0.00017195612599607557, 0.00021560750610660762, 0.00023557357781101018, 0.00016803573817014694, 0.00026148994220420718, 5.3686846513301134e-05, 0.00011797351180575788, 7.1382790338248014e-05, 0.00046295003267005086, 0.00027226118254475296, 0.00012432275980245322, 0.0003547605883795768, 3.2582873245701194e-05, 0.0001463533699279651, 0.00010922054934781045, 0.00028720748377963901, 0.00024707161355763674, } };
const TfLiteAffineQuantization quant10 = { (TfLiteFloatArray*)&quant10_scale, (TfLiteIntArray*)&g0::quant6_zero, 0 };
const MODEL_SECTION(EI_MODEL_SECTION) ALIGN(16) int8_t tensor_data11[1*3*3*96] = { 
  /* [0][0][][] */ -47,-72,-10,127,22,71,75,-60,-15,-18,-15,-6,-30,2,36,1,-9,-45,26,23,20,-127,127,4,-80,7,50,-28,-127,-127,39,25,11,26,59,-18,-30,-10,30,-6,-13,27,-108,70,26,-70,38,46,-17,53,-24,20,3,-7,17,47,-92,-50,-62,-20,-11,0,12,37,69,-26,75,13,-9,16,19,127,24,22,26,0,-11,17,127,-7,-15,15,-27,21,126,23,-75,-16,1,-31,-14,-37,2,-25,-16,26, 127,-127,75,105,-43,127,38,-118,69,4,-17,127,127,-100,-13,15,10,127,127,-111,127,-71,81,66,-125,-117,-66,-35,-54,46,-58,-21,-91,52,-127,-83,-44,-15,-53,63,0,127,127,82,-51,-113,-111,-49,-15,-127,44,84,67,-32,45,82,-48,41,-79,-115,-45,-41,-61,66,74,-61,27,30,-82,32,-16,90,118,127,14,20,1,58,-32,52,65,127,127,-22,-8,75,-110,127,-119,-97,6,-127,-88,-127,-39,106, -75,-13,31,-82,15,-26,63,-9,79,-34,-27,17,-20,-7,-9,-13,-8,-16,6,-3,-21,-100,30,-3,-127,97,8,-55,119,49,-14,10,0,13,14,-28,-9,33,19,11,25,12,-119,65,18,-20,36,13,-14,11,-16,5,-10,1,-3,20,-66,5,-34,52,2,41,34,-2,-7,-39,-31,23,10,3,-3,37,11,-26,-6,4,-13,-7,-84,2,-21,-26,-18,3,-110,9,-32,-22,-49,25,-24,-34,29,-28,-15,1, 
  /* [0][1][][] */ -64,-75,74,-35,-47,92,17,127,-52,-22,0,-120,26,-112,77,31,-2,-62,-18,89,51,-67,48,48,-99,-13,127,-22,-23,65,121,-101,-127,89,-87,-56,-36,31,-28,95,-50,-25,-5,47,-47,127,-22,65,16,95,20,-1,15,-55,28,31,127,121,-73,-87,127,-33,-35,127,72,-39,-15,-2,127,38,127,96,-40,102,-5,12,14,13,-31,9,-43,123,-78,111,2,36,-54,30,79,-127,-31,-5,127,-69,-24,1, 68,124,57,-116,127,81,88,39,-127,127,127,-39,-66,-127,-127,127,127,-65,-125,-50,102,95,-121,127,-108,-92,-43,127,-127,109,-127,-127,-87,127,106,127,127,-127,-104,127,-65,-94,110,-127,-127,-36,-127,-127,127,-113,87,43,127,127,127,-127,100,-127,-127,127,20,-78,-127,-98,-127,127,-127,127,-126,-127,-106,-84,-127,-80,127,127,-127,127,-78,127,127,29,-40,-127,61,127,92,45,127,11,127,4,-66,36,127,-127, -53,-14,-48,39,-56,-98,33,-27,18,-34,-28,94,1,89,13,11,-4,64,-7,127,2,-81,-41,6,-76,104,-71,-20,-69,-17,16,-61,-70,36,4,-17,-29,44,-67,42,127,-4,-39,31,-40,-59,15,44,8,118,-11,6,-37,-73,2,18,96,3,0,21,-34,127,93,-52,-44,12,38,-11,-77,122,-18,-88,0,-55,-16,-20,26,15,77,-37,-70,-44,57,15,-48,-15,72,23,16,59,-42,22,-42,98,-26,-5, 
  /* [0][2][][] */ -67,0,-3,-21,13,-42,65,23,55,-29,-36,-3,18,20,-26,2,-6,64,6,1,-52,-78,3,-11,-33,-55,35,-69,91,39,25,27,17,-9,-13,-46,-6,36,-3,2,-16,-6,-67,106,5,31,12,36,-15,-31,11,-20,22,-1,10,14,-72,24,-17,13,16,1,-20,-4,-1,-47,-46,13,-33,12,26,29,13,-20,28,3,17,4,-77,-12,-9,-11,19,15,-127,9,14,-44,-57,-51,-27,-50,9,58,-19,-9, 123,32,-127,-36,-71,-24,36,29,-64,-30,-20,-110,-77,111,-12,37,3,-52,-10,-125,92,-49,-38,-1,-115,127,-51,20,-34,-22,-9,-6,-63,16,25,5,-23,-28,127,56,11,-13,69,-33,-38,76,-68,-44,-33,-6,-127,-127,-51,-26,2,40,-67,-7,11,38,-7,-18,10,-47,-55,33,65,-23,115,107,-23,-72,11,-58,4,3,99,3,52,24,13,-100,-48,3,4,8,127,40,-60,38,-18,-109,41,81,-9,25, -53,12,-16,27,16,-67,-127,0,-11,-8,-16,5,15,-27,19,-1,-6,-17,5,17,-48,-68,15,-1,14,-97,22,3,-47,-40,-6,15,44,-20,-7,-25,-36,3,42,-38,23,-2,-49,-31,3,64,22,15,-9,-5,11,-9,17,5,-4,-5,-62,-12,2,-39,-11,10,86,-11,34,-2,-1,26,1,5,-4,19,-18,15,1,14,36,0,74,-12,3,-11,-6,-17,74,1,43,-38,59,37,-16,-55,-7,3,-14,-16, 
};
const TfArray<4, int> tensor_dimension11 = { 4, { 1,3,3,96 } };
const TfArray<96, float> quant11_scale = { 96, { 0.0047873649746179581, 0.0039317156188189983, 0.0047231880016624928, 0.0099578835070133209, 0.0088047655299305916, 0.0062935128808021545, 0.0026492639444768429, 0.0035900736693292856, 0.010659437626600266, 0.0064526768401265144, 0.0096726464107632637, 0.0047453283332288265, 0.011451359838247299, 0.008684033527970314, 0.015558363869786263, 0.0068259821273386478, 0.0088437478989362717, 0.0070168105885386467, 0.0070763509720563889, 0.0021715180482715368, 0.0031778693664819002, 0.0017887275898829103, 0.0053392448462545872, 0.0045151631347835064, 0.0032918120268732309, 0.0037762967403978109, 0.0076491003856062889, 0.0068935672752559185, 0.0032209267374128103, 0.019057335332036018, 0.015929142013192177, 0.010314607992768288, 0.0057565490715205669, 0.0061209546402096748, 0.008721192367374897, 0.021607298403978348, 0.016202142462134361, 0.0062639820389449596, 0.0094896042719483376, 0.0046305838041007519, 0.0093656405806541443, 0.0083822896704077721, 0.014350191690027714, 0.0033755945041775703, 0.018294816836714745, 0.0040244339033961296, 0.0045357681810855865, 0.010844727046787739, 0.030382158234715462, 0.0043101836927235126, 0.022198617458343506, 0.0069108624011278152, 0.011443334631621838, 0.0060713044367730618, 0.0098465168848633766, 0.005056207999587059, 0.0062362542375922203, 0.015727048739790916, 0.002324454952031374, 0.0067000803537666798, 0.012538597919046879, 0.011226075701415539, 0.005104484036564827, 0.0064677861519157887, 0.0049897907301783562, 0.0053106821142137051, 0.0095190946012735367, 0.018160076811909676, 0.007841925136744976, 0.005106641910970211, 0.0074245156720280647, 0.0040432331152260303, 0.012704618275165558, 0.0061795259825885296, 0.015527117997407913, 0.012576933018863201, 0.0048743686638772488, 0.0036036025267094374, 0.0023908377625048161, 0.007308135274797678, 0.0091633191332221031, 0.010011876933276653, 0.007141518872231245, 0.011113322339951992, 0.0022816909477114677, 0.0050138742662966251, 0.0030337686184793711, 0.019675375893712044, 0.011571099981665611, 0.0052837170660495758, 0.015077324584126472, 0.0013847720110788941, 0.0062200180254876614, 0.0046418732963502407, 0.012206317856907845, 0.010500543750822544, } };
const TfLiteAffineQuantization quant11 = { (TfLiteFloatArray*)&quant11_scale, (TfLiteIntArray*)&g0::quant6_zero, 3 };
const MODEL_SECTION(EI_MODEL_SECTION) ALIGN(16) int32_t tensor_data12[96] = { 2061, 7407, 13183, 28479, 14015, -2883, -2339, 5266, 25006, -3493, 11037, 5890, 8144, 11705, 31816, 1536, 1989, 7166, 12934, 5523, -320, 381, 13626, -1218, 4411, 54, 13549, 7886, 5731, 46724, 39394, 19401, 7705, -876, 12197, 3064, 1931, 3628, 22750, -990, 12447, 9941, 29423, -4107, 24734, 9827, 6558, 20017, 63017, 10828, -627, 10228, -3780, -157, -2277, 7180, -588, 16982, 6379, 9483, 6044, 17718, 6203, 7184, 11517, 10642, 4621, -6275, 8837, -3897, 5426, 9029, 18752, 6322, -4918, -5977, 8634, 290, 2724, -1445, 19790, 12894, 5874, 12661, 3273, 357, 11030, 80430, 10047, 10083, 6262, -315, 7057, 10230, 5221, 12603, };
const TfArray<96, float> quant12_scale = { 96, { 0.00019289493502583355, 0.0002014514320762828, 0.00014244198973756284, 8.1750993558671325e-05, 0.00021164883219171315, 0.00034893458359874785, 0.00034591290750540793, 0.00031116337049752474, 9.3175280198920518e-05, 0.00039768370334059, 0.00024039763957262039, 0.00014911456673871726, 0.00015795667422935367, 0.00019780838920269161, 7.4341456638649106e-05, 0.00037485270877368748, 0.00022017216542735696, 0.000176709916559048, 0.00017019860388245434, 0.00021399659453891218, 0.00027342626708559692, 0.00058798881946131587, 0.00014756116434000432, 0.00050661677960306406, 0.0005899326060898602, 0.00017416193441022187, 0.00016509044507984072, 0.00017680226301308721, 0.00028119070339016616, 7.5667943747248501e-05, 7.162777183111757e-05, 0.0001255934766959399, 0.00021456480317283422, 0.00026024499675258994, 0.00016348158533219248, 0.00019059768237639219, 0.00027260652859695256, 0.00040962797356769443, 0.00012016748951282352, 0.00053157075308263302, 0.00015220293425954878, 0.00015704848919995129, 9.1930327471345663e-05, 0.00025540986098349094, 0.00013083899102639407, 0.00016003186465241015, 0.00026386423269286752, 0.00013369206862989813, 6.5196021751035005e-05, 0.00019490827980916947, 0.0001739160215947777, 0.00016966853581834584, 0.00028603058308362961, 0.00025331889628432691, 0.00044773757690563798, 0.00015458556299563497, 0.00016405689530074596, 0.00010905542148975655, 0.00031939343898557127, 0.00015696368063800037, 0.00026655540568754077, 7.8581440902780741e-05, 0.00023667245113756508, 0.00013536903134081513, 0.00021543099137488753, 0.00018241307407151908, 0.00027745484840124846, 0.00021506084885913879, 0.00019078886543866247, 0.00018063976312987506, 0.00020293914712965488, 0.00017480700626038015, 0.00011191291559953243, 0.00016540288925170898, 0.00031352470978163183, 0.00022680255642626435, 0.00019297850667499006, 0.00032683595782145858, 0.00027213746216148138, 0.0002806894772220403, 0.00010355873382650316, 0.00013133601169101894, 0.00014493011985905468, 0.00015129169332794845, 0.00034990496351383626, 0.00020559343101922423, 0.00021095512784086168, 4.8076712118927389e-05, 0.00013929637498222291, 0.00022573200112674385, 0.00019951313151977956, 0.00034255511127412319, 0.00020596411195583642, 0.00015820878616068512, 0.00021956833370495588, 0.00013504223898053169, } };
const TfLiteAffineQuantization quant12 = { (TfLiteFloatArray*)&quant12_scale, (TfLiteIntArray*)&g0::quant6_zero, 0 };
const MODEL_SECTION(EI_MODEL_SECTION) ALIGN(16) int8_t tensor_data13[96*1*1*16] = { 
  /* [0][0][][] */ 1,55,-14,86,35,20,2,-5,38,24,-48,108,7,-114,43,-127, 
  /* [1][0][][] */ 30,41,-13,-15,32,-22,127,-122,4,97,-22,-25,17,-42,48,1, 
  /* [2][0][][] */ -127,36,-44,-41,1,-29,46,99,-43,39,115,-30,-64,-3,51,-48, 
  /* [3][0][][] */ -59,85,36,44,-62,36,83,127,-6,38,-103,3,43,-60,-80,-38, 
  /* [4][0][][] */ 9,-1,42,63,-15,59,-4,40,12,-20,8,-5,29,2,-127,-27, 
  /* [5][0][][] */ -7,-24,45,-13,-6,-30,-6,26,-79,116,-25,-127,-11,26,-49,-35, 
  /* [6][0][][] */ 19,3,28,-6,33,49,-59,-61,-14,-3,39,-20,127,-19,-13,-41, 
  /* [7][0][][] */ 29,13,127,-6,-13,-24,-2,-15,-65,36,-89,-42,10,1,26,-23, 
  /* [8][0][][] */ 15,20,80,69,-46,85,13,39,48,-4,16,-81,-37,16,-127,-76, 
  /* [9][0][][] */ 19,-127,44,60,19,-20,4,33,119,5,85,12,-16,16,-103,-46, 
  /* [10][0][][] */ -31,-121,-11,-37,-127,-3,2,64,92,124,68,-37,-18,61,93,1, 
  /* [11][0][][] */ 39,-18,20,-108,22,-28,-117,-127,-54,39,0,-20,27,-26,42,-58, 
  /* [12][0][][] */ -2,-10,5,-29,-26,-32,-101,-28,-34,-56,-33,25,21,127,81,32, 
  /* [13][0][][] */ -14,-89,-79,39,-10,-69,-6,-29,60,15,-19,-15,30,30,127,11, 
  /* [14][0][][] */ -11,-67,72,18,35,42,1,125,26,47,1,-33,20,52,-64,127, 
  /* [15][0][][] */ 15,-37,5,53,18,1,89,1,4,-127,12,-33,4,-20,-9,-35, 
  /* [16][0][][] */ 34,-88,-36,27,21,21,25,-77,127,59,89,2,5,99,73,95, 
  /* [17][0][][] */ -46,-60,45,127,77,26,9,-37,99,-14,-9,-36,4,36,-112,5, 
  /* [18][0][][] */ -18,18,-5,9,-113,-9,-4,47,-73,-23,-15,-47,7,-127,80,1, 
  /* [19][0][][] */ 62,-43,45,-60,91,26,-98,92,95,-76,66,34,-22,42,47,127, 
  /* [20][0][][] */ 35,-32,74,-73,-1,11,-32,50,-8,-47,111,-16,7,8,-34,127, 
  /* [21][0][][] */ -49,-8,-10,-37,5,1,-62,-32,-7,57,-13,21,-127,-6,25,14, 
  /* [22][0][][] */ 24,-29,26,-30,17,-59,2,-13,-127,32,-8,-39,-22,-18,70,-33, 
  /* [23][0][][] */ 11,9,18,-3,9,9,-13,8,-3,-7,46,-10,127,-8,3,-42, 
  /* [24][0][][] */ -12,-10,13,-70,-14,-15,36,-1,-55,-18,-16,-127,20,-88,38,9, 
  /* [25][0][][] */ -125,29,-42,-10,61,-36,-82,-127,-30,68,-28,-65,-73,-96,16,-52, 
  /* [26][0][][] */ 57,-10,54,-112,127,-42,2,2,119,-43,44,-33,-20,94,-3,72, 
  /* [27][0][][] */ 105,-28,20,-35,-36,-57,-3,-26,-31,17,-127,13,19,-12,5,38, 
  /* [28][0][][] */ -121,0,-127,-67,50,1,69,-48,19,61,-87,28,38,0,-33,37, 
  /* [29][0][][] */ -55,-20,2,127,0,20,2,-41,2,4,-69,51,10,-62,18,-41, 
  /* [30][0][][] */ 60,-5,127,-9,63,46,-40,57,-23,-83,55,-32,4,12,-54,53, 
  /* [31][0][][] */ 20,-94,-1,-55,-5,-59,17,-46,-21,33,96,11,-16,87,73,127, 
  /* [32][0][][] */ -12,70,-31,35,-127,25,-68,-36,-56,-34,-4,49,17,52,31,57, 
  /* [33][0][][] */ 31,-24,24,127,13,-9,34,-52,-120,48,57,-32,15,2,14,119, 
  /* [34][0][][] */ 29,3,14,-4,94,-42,-127,-7,-43,83,-52,-6,-29,6,3,14, 
  /* [35][0][][] */ 82,17,-18,-1,18,-127,-24,4,-23,-11,-92,-7,85,37,-10,33, 
  /* [36][0][][] */ 23,-6,-127,13,53,10,-40,18,-27,-22,-5,-7,8,15,-25,5, 
  /* [37][0][][] */ 9,3,127,-2,-49,17,13,-57,-10,22,-38,21,12,-9,20,-11, 
  /* [38][0][][] */ -121,23,-11,17,15,75,21,-13,4,-7,127,-20,-30,5,-3,-9, 
  /* [39][0][][] */ -20,-6,18,38,37,-23,-127,49,20,25,1,-40,4,-12,-5,5, 
  /* [40][0][][] */ 14,59,-10,127,18,32,42,24,-66,-39,-35,59,7,35,-76,-26, 
  /* [41][0][][] */ 25,1,-44,-25,-57,-13,127,101,-47,90,-32,6,15,61,31,-25, 
  /* [42][0][][] */ 40,-42,-27,-21,13,21,-38,69,66,-85,127,38,-6,31,-46,44, 
  /* [43][0][][] */ -59,3,30,-41,40,21,-74,-76,-16,39,10,-6,-127,-12,22,-8, 
  /* [44][0][][] */ 10,10,-12,2,-1,-19,-4,-44,127,1,19,44,14,73,0,40, 
  /* [45][0][][] */ -47,-94,8,-102,26,-1,-18,61,22,-62,-17,-35,22,123,-35,127, 
  /* [46][0][][] */ -52,9,-22,96,-74,-22,-5,-85,-127,48,-40,-18,-7,27,-5,-47, 
  /* [47][0][][] */ -17,-33,-93,127,17,52,-15,-37,16,65,82,62,-29,-31,19,-33, 
  /* [48][0][][] */ 4,0,20,-127,31,-46,-13,-4,-40,11,13,-14,-18,47,113,45, 
  /* [49][0][][] */ -12,10,56,107,1,27,-63,-7,27,-57,-83,-32,-28,-36,-76,-127, 
  /* [50][0][][] */ -1,68,32,-100,67,23,-19,62,127,-13,-40,5,-5,-31,6,-34, 
  /* [51][0][][] */ 2,-21,26,2,54,-7,-54,-127,15,-72,-6,3,-24,-23,-18,-16, 
  /* [52][0][][] */ 26,19,-13,28,34,-20,-78,116,-95,127,-50,-47,99,107,12,-33, 
  /* [53][0][][] */ -3,102,6,-93,-34,-9,28,-27,-59,-53,-43,46,10,-127,-85,-11, 
  /* [54][0][][] */ 9,17,25,27,56,-26,3,-33,5,32,-24,-17,-10,127,-45,-13, 
  /* [55][0][][] */ -108,127,92,-13,52,4,-26,-12,-43,32,92,-19,-13,-30,102,-21, 
  /* [56][0][][] */ 76,-8,14,-122,81,-6,-1,43,46,-60,64,127,-19,7,104,77, 
  /* [57][0][][] */ -21,7,9,61,-20,25,35,127,-5,6,-5,-23,-1,45,0,23, 
  /* [58][0][][] */ 20,127,-1,-119,4,27,-5,27,108,-15,6,73,9,-79,34,72, 
  /* [59][0][][] */ 35,54,57,-111,-38,0,22,-13,16,30,34,-75,-29,-127,-71,15, 
  /* [60][0][][] */ 62,-14,116,-44,-42,127,40,-21,-4,51,-41,-3,23,14,33,3, 
  /* [61][0][][] */ -25,31,-43,-45,-53,3,121,127,-18,75,1,9,20,71,20,-39, 
  /* [62][0][][] */ 1,9,7,5,-56,17,-69,21,-5,-32,0,-61,18,-127,86,-9, 
  /* [63][0][][] */ 5,-21,3,-96,42,-1,-115,-127,-62,87,-10,16,48,-6,23,-38, 
  /* [64][0][][] */ -32,-13,29,41,67,-12,-28,-127,22,-120,5,-43,-5,-28,-12,14, 
  /* [65][0][][] */ -127,15,30,-63,14,71,48,-42,-75,33,45,-9,-3,8,-22,-23, 
  /* [66][0][][] */ 47,-3,69,6,-59,24,-11,55,-46,-13,68,-70,-16,40,-127,-2, 
  /* [67][0][][] */ 22,-25,-74,62,44,-64,-72,-114,43,-113,-52,-47,-127,10,-86,29, 
  /* [68][0][][] */ 30,-50,-79,74,-53,-107,2,-58,-28,-12,38,-72,-43,74,127,-16, 
  /* [69][0][][] */ -28,32,-84,69,-20,-120,37,98,21,18,66,-15,127,28,-20,-5, 
  /* [70][0][][] */ 24,7,-44,-34,-45,4,127,85,-23,61,-13,17,9,42,17,-5, 
  /* [71][0][][] */ 6,-4,-25,-63,23,1,17,68,-22,-51,-5,3,3,-127,72,19, 
  /* [72][0][][] */ 25,31,-21,26,22,-53,-36,-127,7,47,-55,13,58,51,53,64, 
  /* [73][0][][] */ -47,-127,-26,-67,-98,-28,48,-28,-19,13,-29,-35,23,-55,63,-7, 
  /* [74][0][][] */ -33,24,60,109,1,0,-127,90,32,-32,-30,-46,8,1,-21,-7, 
  /* [75][0][][] */ -64,31,-27,19,-21,97,85,127,2,54,7,-29,-108,81,6,11, 
  /* [76][0][][] */ 6,-28,-51,-28,40,-74,-127,-116,-27,-11,4,-2,52,-14,82,-32, 
  /* [77][0][][] */ -40,4,-39,-29,-52,-6,-9,-49,127,10,-68,3,-2,42,31,-79, 
  /* [78][0][][] */ -110,-127,-18,90,69,74,-31,36,4,-60,-109,77,41,-27,88,52, 
  /* [79][0][][] */ 45,-2,42,-56,127,5,59,26,88,32,6,39,3,-28,15,-36, 
  /* [80][0][][] */ -22,-52,61,-105,-25,-49,0,-10,-88,-59,-32,-55,8,127,-49,6, 
  /* [81][0][][] */ 19,-8,36,61,6,69,-18,-24,4,5,-2,-36,-1,42,-127,0, 
  /* [82][0][][] */ -68,-42,13,-127,-13,-18,-6,-69,-39,-21,-54,-113,-18,-104,-89,6, 
  /* [83][0][][] */ 1,4,-15,-49,-28,21,-21,21,-62,-5,20,-76,25,-127,20,26, 
  /* [84][0][][] */ 127,40,14,53,-66,14,-55,29,-13,-17,119,18,-70,13,94,-85, 
  /* [85][0][][] */ -16,-23,24,-35,62,-8,-55,126,-80,-117,-57,-28,-26,90,89,-127, 
  /* [86][0][][] */ 13,-1,5,-7,-67,71,-44,49,-107,-57,44,-23,-9,-127,-12,34, 
  /* [87][0][][] */ 127,-38,13,5,-36,-29,6,6,13,22,-111,16,36,-3,-7,29, 
  /* [88][0][][] */ 20,75,-24,0,1,-18,-25,-21,104,21,35,45,-11,-39,106,-127, 
  /* [89][0][][] */ 43,67,-68,-22,-23,-20,15,-55,48,44,34,-38,-45,-8,-23,-127, 
  /* [90][0][][] */ -21,-45,-13,-72,-75,2,127,-50,70,-70,25,-61,51,-21,-31,3, 
  /* [91][0][][] */ 4,-5,-9,-109,-30,13,19,-38,-40,15,76,57,-1,-14,28,127, 
  /* [92][0][][] */ 33,20,8,14,49,-17,-80,-127,55,-51,-3,-20,-48,-7,-3,-17, 
  /* [93][0][][] */ 78,-10,28,-122,-28,10,-39,37,57,-60,71,-11,-41,127,-12,10, 
  /* [94][0][][] */ -101,50,-112,4,55,-127,-1,16,-20,-44,97,-37,-10,-11,-19,8, 
  /* [95][0][][] */ -33,48,12,-127,-14,-10,-19,12,11,-40,-45,-76,4,27,-52,3, 
};
const TfArray<96, float> quant13_scale = { 96, { 0.00063452462200075388, 0.00066267111105844378, 0.0004685605235863477, 0.00026891852030530572, 0.00069621525472030044, 0.0011478144442662597, 0.0011378746712580323, 0.0010235666995868087, 0.00030649852124042809, 0.0013081738725304604, 0.00079078396083787084, 0.00049050984671339393, 0.0005195958074182272, 0.00065068737603724003, 0.0002445449645165354, 0.0012330716708675027, 0.00072425260441377759, 0.00058128428645431995, 0.00055986543884500861, 0.00070393818896263838, 0.00089943106286227703, 0.0019341792212799191, 0.00048539994168095291, 0.0016665073344483972, 0.0019405734492465854, 0.00057290273252874613, 0.00054306222591549158, 0.00058158807223662734, 0.00092497211880981922, 0.00024890841450542212, 0.00023561833950225264, 0.0004131376335863024, 0.00070580729516223073, 0.00085607153596356511, 0.00053776992717757821, 0.00062696787063032389, 0.00089673459297046065, 0.0013474642764776945, 0.00039528892375528812, 0.001748593058437109, 0.00050066900439560413, 0.00051660835742950439, 0.00030240326304920018, 0.00084016640903428197, 0.00043039265437982976, 0.00052642211085185409, 0.00086797698168084025, 0.0004397778247948736, 0.0002144612226402387, 0.0006411474896594882, 0.00057209382066503167, 0.00055812177015468478, 0.00094089278718456626, 0.00083328824257478118, 0.0014728251844644547, 0.00050850660772994161, 0.00053966237464919686, 0.00035873596789315343, 0.001050639315508306, 0.00051632936811074615, 0.00087682949379086494, 0.00025849233497865498, 0.00077853002585470676, 0.00044529413571581244, 0.00070865661837160587, 0.00060004473198205233, 0.00091268302639946342, 0.00070743903052061796, 0.00062759674619883299, 0.00059421145124360919, 0.00066756492014974356, 0.00057502469280734658, 0.00036813566111959517, 0.00054408999858424067, 0.0010313342791050673, 0.00074606318958103657, 0.00063479953678324819, 0.0010751213412731886, 0.00089519156608730555, 0.00092332327039912343, 0.00034065471845678985, 0.00043202759115956724, 0.00047674519009888172, 0.0004976714844815433, 0.0011510064359754324, 0.00067629612749442458, 0.00069393333978950977, 0.00015814753714948893, 0.00045821306412108243, 0.00074254162609577179, 0.00065629510208964348, 0.0011268293019384146, 0.0006775154615752399, 0.00052042515017092228, 0.00072226632619276643, 0.00044421918573789299, } };
const TfLiteAffineQuantization quant13 = { (TfLiteFloatArray*)&quant13_scale, (TfLiteIntArray*)&g0::quant6_zero, 0 };
const MODEL_SECTION(EI_MODEL_SECTION) ALIGN(16) int32_t tensor_data14[16] = { -1691, -2988, -10104, 34731, 31522, 6693, -2747, -2420, 24384, 1692, 29337, 24082, -12068, 13633, 34378, -27813, };
const TfArray<16, float> quant14_scale = { 16, { 0.00041730882367119193, 0.00029801126220263541, 0.00024706148542463779, 0.0002186763595091179, 0.00032621095306240022, 0.00031827599741518497, 0.00032432095031253994, 0.00038300757296383381, 0.00020753595163114369, 0.00027146382490172982, 0.0003974085848312825, 0.00063090503681451082, 0.00041303288890048862, 0.00045776047045364976, 0.00050765444757416844, 0.00035214360104873776, } };
const TfLiteAffineQuantization quant14 = { (TfLiteFloatArray*)&quant14_scale, (TfLiteIntArray*)&g0::quant8_zero, 0 };
const MODEL_SECTION(EI_MODEL_SECTION) ALIGN(16) int8_t tensor_data15[16*1*1*96] = { 
  /* [0][0][][] */ -5,15,-10,22,43,69,-31,-31,39,6,8,4,-8,8,28,63,7,-14,-4,-4,98,-58,2,-13,-29,-31,-42,-87,-11,-1,42,50,109,-1,0,-7,8,-21,-20,13,-39,7,21,-33,7,-35,-9,27,-16,17,9,-4,-30,-9,7,-2,41,26,-16,-21,-63,26,-6,-5,15,7,51,-2,6,11,-4,-26,-66,-8,1,8,-4,-91,11,-22,39,-25,-53,-46,30,-17,7,23,-1,8,24,-29,26,22,-14,127, 
  /* [1][0][][] */ 74,-83,33,69,-11,-57,-21,-48,-25,-84,-8,31,12,-56,-35,-48,-83,-2,17,9,-36,-112,-39,19,127,-64,-68,9,-16,85,-8,41,10,0,-35,32,-16,-3,45,-31,9,-71,63,-24,-57,7,44,-3,31,21,-11,-72,54,-81,42,-23,19,21,-21,-104,25,-71,22,-51,-2,-76,35,39,28,42,-39,-9,-84,31,-17,73,37,76,15,-23,34,2,-75,28,-80,60,-10,52,-38,0,16,15,5,-38,33,-3, 
  /* [2][0][][] */ 23,11,19,-23,15,4,-4,31,59,-11,16,77,5,6,58,-1,-7,-22,19,-4,-14,-72,-2,-59,-13,-9,-23,23,-16,27,123,-64,14,-81,-22,58,13,127,-51,-18,-3,-22,2,37,-52,-58,-61,26,29,29,-36,-29,32,7,-2,-27,-34,8,-1,35,-4,15,77,99,14,-90,13,-84,-2,-15,-17,5,-22,11,-23,9,19,58,11,11,17,90,36,-8,-13,-2,19,8,36,2,-5,-50,-50,1,-15,76, 
  /* [3][0][][] */ -12,-24,-36,28,25,-20,2,-23,-14,13,0,7,10,-19,49,-7,43,-40,22,10,-17,-10,-10,-3,-26,12,10,-3,18,-43,62,-24,9,-13,-16,43,-7,-10,-11,7,6,-69,16,-33,-2,2,1,-4,-127,45,-8,30,-119,-55,-28,-36,27,12,-7,57,-12,14,14,17,-24,-91,-38,22,50,22,-3,29,-45,10,-3,-45,-48,-55,26,-36,20,-20,15,58,42,55,27,7,33,3,-12,8,-28,4,-19,-22, 
  /* [4][0][][] */ 4,-28,10,-79,0,-23,-53,10,-20,-53,-31,-9,0,78,14,11,51,-9,9,5,-15,25,57,0,-13,-10,11,23,-3,-16,0,-13,-40,16,-3,9,46,-22,9,-15,11,2,-112,-39,30,-3,-14,-20,6,88,-11,-19,-26,-22,0,-15,3,-36,27,34,12,0,9,-11,34,-114,25,-18,-55,18,-21,10,-18,18,-16,33,-29,66,59,8,9,8,127,-48,34,-15,-22,-13,65,21,-2,13,-26,35,0,-50, 
  /* [5][0][][] */ -3,6,-8,-12,-6,-12,-6,108,52,-23,-15,-26,-17,21,38,34,-21,-6,4,-34,-54,-14,-3,-54,5,1,16,78,66,-2,73,39,-49,17,-4,-4,-43,-49,-21,-20,-38,-17,-17,-10,57,20,2,7,15,18,-23,2,-30,-19,-2,-11,-16,-22,-2,28,-46,14,-16,-42,3,18,-14,12,-10,15,0,7,29,6,7,-1,-12,24,13,118,-9,-49,15,25,2,3,13,-38,-8,-13,17,-127,-25,-12,-4,-120, 
  /* [6][0][][] */ -30,-6,-5,-55,3,-11,-7,9,-6,26,-17,-2,42,-64,5,-16,-7,-67,26,9,12,1,-15,28,74,-1,9,-9,21,4,7,-5,-11,5,-20,2,11,-2,11,40,5,-27,-42,-15,0,-26,28,-127,13,23,19,15,12,4,-3,-35,35,-1,-5,10,15,23,2,1,42,56,18,-27,-26,-10,17,-33,11,12,46,-10,-24,22,8,1,-16,-8,47,-27,1,36,27,-12,28,-6,-35,-1,-30,5,-12,20, 
  /* [7][0][][] */ 10,4,34,-18,-9,12,-1,-30,-9,-6,-14,-7,-2,-101,32,1,0,-40,-9,-8,15,-21,-40,1,-22,-8,4,-25,14,13,3,5,-15,3,-9,-16,-4,-17,-38,33,13,-16,-14,36,-1,9,-13,73,-4,19,-13,-22,-23,8,3,-46,49,4,-2,5,-6,1,-15,-5,-19,34,8,-34,-19,-3,4,37,-14,-16,-17,6,59,2,2,-26,7,-41,42,-2,-30,127,-2,8,-30,-26,-6,25,-22,-5,-11,5, 
  /* [8][0][][] */ -75,50,-55,7,41,-8,-23,21,9,82,-39,1,10,29,68,-22,-7,26,-88,31,16,35,-44,4,-54,-27,19,10,57,-100,-5,-3,21,9,23,-8,-20,27,-35,55,1,23,11,-127,-36,-9,51,-21,-44,34,0,72,-106,86,11,-5,7,-16,-29,-28,-6,-37,7,22,-28,30,34,-29,-3,-3,36,84,-16,34,36,32,-3,-99,-4,-47,-19,-21,28,10,-72,1,16,-48,5,42,-30,11,43,-20,-25,-9, 
  /* [9][0][][] */ 27,-57,-38,-30,11,24,-25,19,29,-17,4,10,-42,-33,5,25,-8,8,42,-14,-26,12,-33,-42,30,7,25,-16,-41,-36,-20,-3,-12,10,17,38,17,34,-40,15,15,8,-14,-90,5,-7,27,-127,-29,2,-3,23,-18,6,-17,1,-40,28,-12,14,13,15,21,27,25,114,39,40,14,-11,11,-16,-7,-5,-41,14,63,-4,12,10,-12,8,18,-35,1,24,-6,0,-51,38,-41,-4,11,15,1,-20, 
  /* [10][0][][] */ 21,41,-15,34,70,-103,-5,-31,-2,54,30,-9,-6,18,14,-79,21,33,-23,42,-77,-12,-13,-23,-68,-21,-44,43,22,14,-3,39,-2,-11,37,-18,67,-28,-17,0,-13,68,53,-15,-50,-17,-34,16,-22,-27,-33,2,-7,-7,7,-7,15,34,-20,-16,5,15,-16,24,15,35,47,21,29,-2,33,44,-56,-24,-61,-17,6,23,-12,15,30,-9,-58,-23,63,-54,100,-9,-11,11,25,-14,70,30,-17,-127, 
  /* [11][0][][] */ 43,47,-30,24,-7,10,55,1,-5,-16,-18,-14,-5,3,33,0,-3,-11,-108,-9,2,13,2,-8,-45,-21,-15,4,3,20,0,-5,-9,3,3,17,10,14,3,23,-2,24,63,-98,33,-42,4,-4,-127,22,12,-45,26,23,-15,12,-15,-12,5,7,11,-18,-7,5,-52,53,-18,13,20,6,25,10,-51,-25,14,27,-2,-40,-50,3,12,-3,91,48,1,-12,-14,-12,1,23,-19,0,-2,9,-24,18, 
  /* [12][0][][] */ -27,6,11,2,-24,42,14,-1,127,3,-15,6,5,13,-39,-44,30,29,13,77,53,35,-12,-27,9,10,12,-35,-113,4,33,-40,2,-11,-12,-13,12,8,37,-18,-53,-21,0,9,-2,33,2,-9,20,13,-49,3,3,-10,11,-8,74,-23,7,12,17,-17,9,-13,-5,33,-36,6,3,5,-18,-34,18,10,-65,2,24,-4,6,-60,-20,12,40,47,-10,-18,-17,-21,8,9,-3,55,-24,-31,12,13, 
  /* [13][0][][] */ 27,-14,-24,30,29,1,13,-4,-9,6,8,-3,14,-8,10,-16,19,-73,-40,12,-6,-20,12,9,8,14,3,-12,-7,-27,-11,19,0,10,6,41,11,-5,3,20,0,9,26,43,21,14,-8,-127,14,-9,8,10,-14,-1,21,10,-10,20,24,16,3,23,-10,3,-7,-23,-22,-58,8,17,-7,-39,-16,39,-6,17,-21,-3,18,-2,29,-12,-11,22,15,24,14,23,-2,-5,22,-2,-1,12,-13,-3, 
  /* [14][0][][] */ -115,-57,29,55,33,-23,-28,16,-21,5,-12,6,60,10,-122,-2,78,-16,-12,27,-13,0,35,20,-99,10,35,-19,-38,-74,-32,7,4,0,29,-63,22,29,-8,25,20,34,3,-35,19,127,70,58,-117,47,7,31,-52,-13,43,0,12,10,62,57,39,57,13,50,-3,-19,-44,46,5,70,-52,-87,-77,-1,-12,46,-11,46,80,-3,52,13,35,29,44,8,58,42,28,40,77,-9,-10,18,28,-33, 
  /* [15][0][][] */ 82,-32,44,12,3,81,42,-28,-23,58,15,2,-77,-8,-12,27,17,34,41,-9,19,26,-87,75,23,17,54,-15,33,51,-68,-67,11,-44,49,-5,30,-43,-63,-94,-4,39,12,43,5,44,-16,-29,92,-51,-48,32,49,-114,82,-96,3,-54,19,29,-127,10,11,23,85,-27,-60,37,-23,79,-20,8,37,26,21,-1,31,-60,72,-21,-5,-7,46,87,-8,-8,13,-42,13,-18,64,8,-60,47,18,-4, 
};
const TfArray<16, float> quant15_scale = { 16, { 0.017735624685883522, 0.012665478512644768, 0.010500112548470497, 0.0092937452718615532, 0.013863964937627316, 0.013526729308068752, 0.01378364022821188, 0.016277821734547615, 0.008820277638733387, 0.011537212878465652, 0.016889864578843117, 0.026813462376594543, 0.017553897574543953, 0.019454820081591606, 0.021575313061475754, 0.014966103248298168, } };
const TfLiteAffineQuantization quant15 = { (TfLiteFloatArray*)&quant15_scale, (TfLiteIntArray*)&g0::quant8_zero, 0 };
const MODEL_SECTION(EI_MODEL_SECTION) ALIGN(16) int32_t tensor_data16[96] = { 10343, -9564, 3350, 49469, -1702, -4471, -11502, 3096, -3121, 1397, 3074, -1888, 1170, -6029, 6354, -5759, -1479, 17056, 25600, 3128, 1252, -3443, 68, -310, 17075, -904, 61, -4001, -5630, -7705, 5770, -9475, 555, -1775, -875, 19062, 1130, -3483, 20429, 1054, -37, 1473, -10187, -7578, -7331, 67979, -278, 17091, 36920, -12266, -520, 9320, 8121, -374, -6270, 2645, -10257, 1877, 2344, -6833, -1419, -514, -15190, 298, 1696, 17424, 27649, 22078, -12100, 13, -11812, -1228, 48070, 10298, 32, 515, 18418, 31136, -1, -6566, -2531, -6343, 775, -3061, -81, -545, 1199, 117, 1151, -2924, 86, -1046, -242, -730, 392, 50850, };
const TfArray<96, float> quant16_scale = { 96, { 0.0001742985041346401, 0.00010800287418533117, 0.00024721716181375086, 4.3096617446281016e-05, 0.00015356812218669802, 0.00016162460087798536, 0.00028498552273958921, 7.3904091550502926e-05, 0.00011410059232730418, 0.00034306186717003584, 0.00014473829651251435, 0.00031393617973662913, 7.939684292068705e-05, 0.00039617394213564694, 0.000165357138030231, 0.00016052238061092794, 9.8381555289961398e-05, 0.00031807957566343248, 6.4013227529358119e-05, 0.00017940123507287353, 5.4996729886624962e-05, 0.00017452915199100971, 0.00013299981947056949, 0.0003372624923940748, 0.00020290994143579155, 0.00022474951401818544, 0.00013352709356695414, 0.00017982501594815403, 0.0001129971060436219, 0.00010261589341098443, 0.00014305823424365371, 0.00017211071099154651, 0.00012236485781613737, 0.0001095165716833435, 0.00020350403792690486, 0.00012528797378763556, 0.00039522943552583456, 0.00011030911264242604, 5.083392170490697e-05, 0.00012927284114994109, 0.00020488761947490275, 0.00030825595604255795, 0.00032194770756177604, 0.00015432109648827463, 0.0001850209227995947, 5.3509302233578637e-05, 0.00023619054991286248, 0.00019904380314983428, 7.2056674980558455e-05, 0.00018714687030296773, 0.00016562575183343142, 0.0001362812181469053, 0.00022411324607674032, 0.00026041673845611513, 0.00019102884107269347, 0.00044454235467128456, 0.00038133887574076653, 0.00019257367239333689, 9.620661148801446e-05, 7.5314746936783195e-05, 0.0002881367108784616, 0.00013732437219005078, 0.00024799347738735378, 0.000134085159515962, 0.00022513652220368385, 0.0001667692995397374, 9.2091664555482566e-05, 7.8835786553099751e-05, 0.00033150496892631054, 0.00023453061294276267, 0.00016717056860215962, 0.00012320192763581872, 0.00012068315845681354, 0.00015013557276688516, 0.00014380771608557552, 0.0002261088666273281, 0.00051889696624130011, 5.2839670388493687e-05, 0.00023383811640087515, 0.00030320783844217658, 0.0001444181107217446, 0.00033421252737753093, 0.00011543974687810987, 0.00014384949463419616, 0.00011905407882295549, 0.00010062084766104817, 0.00012832231004722416, 0.00017884995031636208, 0.00019898607570212334, 0.00010634528007358313, 0.00018516104319132864, 9.9754644907079637e-05, 0.00014436813944485039, 0.00041655875975266099, 0.0031093109864741564, 7.5351890700403601e-05, } };
const TfLiteAffineQuantization quant16 = { (TfLiteFloatArray*)&quant16_scale, (TfLiteIntArray*)&g0::quant6_zero, 0 };
const MODEL_SECTION(EI_MODEL_SECTION) ALIGN(16) int8_t tensor_data17[1*3*3*96] = { 
  /* [0][0][][] */ -18,6,-20,103,-18,24,-62,-52,16,-6,98,-10,3,-8,-4,54,5,16,-35,2,74,3,32,-33,3,17,42,50,20,13,24,47,-8,28,11,-15,5,48,-62,-26,20,9,27,17,-85,-58,25,-5,-11,-22,-8,-7,49,5,-9,1,-2,-36,27,-30,27,-3,127,27,-13,-11,11,-52,65,36,2,-7,78,-32,70,4,17,-127,31,66,2,13,127,-14,38,30,-29,-20,35,-7,-14,83,1,21,-2,12, -49,13,-8,11,52,-7,-10,-127,37,14,-127,-5,-17,-13,4,92,17,-30,-14,-16,77,-96,127,26,-61,-31,-105,-15,27,35,-49,17,117,13,-12,-2,-23,127,-65,-127,9,-18,-29,14,46,-127,127,-44,-77,51,50,7,39,-64,31,55,36,41,-102,85,127,35,4,-21,43,-38,-96,-1,37,-30,-19,46,-48,-49,107,-3,-30,-59,-32,63,-65,60,-16,9,-10,49,55,-41,-28,53,-13,73,-127,-30,24,-127, 0,-4,-23,-73,8,19,38,21,-4,-1,5,62,0,-13,-11,4,-13,17,-17,18,5,25,23,-31,1,-31,9,13,-7,5,47,-79,44,18,10,-23,13,4,-28,-20,7,3,-15,7,23,-32,21,1,6,-7,6,-4,4,5,-6,8,-7,45,7,-2,12,-18,3,-17,-26,-18,31,-49,-106,-7,40,-19,-127,-23,-12,17,10,-10,7,12,-13,23,-36,-3,-40,22,26,36,-25,-16,24,-12,20,7,-1,-45, 
  /* [0][1][][] */ -41,59,-18,38,-84,-15,-11,-43,27,94,-45,-22,-31,-25,-7,64,127,-24,-91,-14,58,-127,-28,17,-35,-47,-127,-5,38,36,-49,28,-127,-75,-56,3,66,-4,-52,46,-19,86,1,-4,34,-53,-12,-32,127,43,-3,20,44,9,-37,-18,31,9,-127,127,-36,-90,21,127,-59,-36,-82,126,-37,127,-18,53,-36,-56,38,8,-35,-70,127,47,127,36,6,-1,127,29,-98,47,-37,-36,-103,41,97,104,29,-58, 127,127,127,127,-45,-127,127,23,127,-127,16,-127,-106,127,127,127,-15,-127,-61,-127,127,24,-69,127,127,127,-56,-127,127,127,-127,127,-10,-127,-123,127,-127,-45,97,108,-127,-127,127,127,127,-119,-106,127,-13,127,-127,-127,-127,127,127,-127,127,-127,-43,40,-106,-28,-69,-68,127,127,-68,127,127,-107,-127,127,-42,127,-127,-127,-127,125,-76,127,-42,127,79,127,-37,-127,-25,-108,-127,-127,-23,-127,-22,-127,-127,116, -24,66,-38,2,127,70,-21,48,6,23,-13,-5,-25,-31,-14,-9,-106,-22,-127,37,30,78,-13,-113,-34,-41,122,74,9,35,72,9,124,-47,127,-4,56,5,-92,14,36,24,-23,0,-23,-53,-12,-43,81,16,-11,39,-6,-4,-76,-14,24,21,127,-90,2,127,1,-36,-110,-28,-72,100,15,-17,111,23,-18,-57,11,47,-29,-6,-44,-3,-46,8,46,24,-89,36,127,-48,34,-22,127,-9,-112,35,34,18, 
  /* [0][2][][] */ -5,-40,-22,-60,-4,14,39,32,-1,9,-21,51,24,-34,-8,9,41,3,14,20,-11,30,-16,-25,2,-24,8,3,-9,-7,49,-73,-39,67,-27,-25,31,-35,-63,18,8,9,-34,20,13,-78,-12,-1,-10,6,17,-8,7,2,-23,5,-1,44,-51,34,-6,-13,5,18,-5,-10,22,-51,-57,12,-21,-12,-119,-32,1,18,15,-11,56,17,22,21,-39,15,12,26,-20,9,5,25,22,-5,20,41,-6,-29, -28,-10,-27,24,-44,73,-24,66,7,-7,54,-11,127,-7,-19,-15,0,-40,-57,23,-23,81,-45,-109,-47,-47,99,69,14,43,53,-1,-121,64,-14,-23,-28,-27,-127,-3,44,-13,-14,38,-27,-43,-18,-48,-61,28,69,24,-12,-81,29,51,17,26,76,-54,19,-57,-7,1,20,-26,-127,-54,-11,-27,-63,24,36,-48,-29,-7,-44,24,-57,2,49,33,18,10,6,64,-92,127,17,126,-31,-18,114,-21,47,83, -10,-34,-26,29,13,65,-43,12,6,-7,-1,14,13,-51,-10,-13,-44,-6,19,19,-26,7,-20,5,-4,19,-3,52,-2,-6,33,29,18,43,20,-23,-6,-27,-30,9,11,-11,21,9,-74,-31,-12,4,-2,-16,0,-4,-10,8,-18,-5,0,-49,12,-28,-22,49,10,-29,-9,-2,36,-53,46,6,52,-21,30,-56,-18,22,11,12,-5,23,-30,30,88,-15,-17,55,40,-9,112,12,2,-18,9,-22,-6,-50, 
};
const TfArray<96, float> quant17_scale = { 96, { 0.0074076862074434757, 0.0045901220291852951, 0.01050672959536314, 0.001831606263294816, 0.0065266448073089123, 0.006869045551866293, 0.012111884541809559, 0.0031409237999469042, 0.0048492751084268093, 0.014580128714442253, 0.0061513776890933514, 0.013342287391424179, 0.0033743656240403652, 0.016837392002344131, 0.0070276781916618347, 0.006822200957685709, 0.0041812160052359104, 0.013518381863832474, 0.0027205620426684618, 0.0076245521195232868, 0.0023373609874397516, 0.0074174888432025909, 0.0056524919345974922, 0.014333655126392841, 0.0086236726492643356, 0.0095518538728356361, 0.0056749014183878899, 0.0076425629667937756, 0.004802376963198185, 0.0043611754663288593, 0.0060799745842814445, 0.0073147052899003029, 0.0052005061879754066, 0.0046544540673494339, 0.0086489217355847359, 0.0053247385658323765, 0.016797250136733055, 0.0046881372109055519, 0.0021604415960609913, 0.0054940953850746155, 0.008707723580300808, 0.013100877404212952, 0.013682777062058449, 0.006558646447956562, 0.007863389328122139, 0.0022741453722119331, 0.010038098320364952, 0.008459361270070076, 0.0030624086502939463, 0.0079537415876984596, 0.0070390943437814713, 0.0057919519022107124, 0.0095248129218816757, 0.011067710816860199, 0.0081187253817915916, 0.018893050029873848, 0.016206901520490646, 0.008184380829334259, 0.0040887808427214622, 0.003200876759365201, 0.012245810590684414, 0.0058362856507301331, 0.010539722628891468, 0.0056986189447343349, 0.0095683019608259201, 0.0070876949466764927, 0.0039138956926763058, 0.0033505209721624851, 0.01408896129578352, 0.0099675506353378296, 0.0071047493256628513, 0.0052360817790031433, 0.0051290341652929783, 0.0063807619735598564, 0.0061118276789784431, 0.0096096266061067581, 0.022053120657801628, 0.0022456860169768333, 0.0099381199106574059, 0.012886333279311657, 0.0061377696692943573, 0.014204032719135284, 0.0049061891622841358, 0.0061136032454669476, 0.0050597982481122017, 0.0042763859964907169, 0.0054536983370780945, 0.0076011228375136852, 0.0084569081664085388, 0.0045196744613349438, 0.0078693442046642303, 0.004239572212100029, 0.0061356457881629467, 0.017703747376799583, 0.1321457177400589, 0.0032024553511291742, } };
const TfLiteAffineQuantization quant17 = { (TfLiteFloatArray*)&quant17_scale, (TfLiteIntArray*)&g0::quant6_zero, 3 };
const MODEL_SECTION(EI_MODEL_SECTION) ALIGN(16) int32_t tensor_data18[96] = { 19001, 2029, 10713, -846, 6015, 7588, 21274, 9390, -2007, 18091, 8727, 2809, 10982, 60415, -653, -2398, 14589, 17107, 2631, -206, -892, 19481, 7326, 4418, 12434, 6910, 5958, 5533, 46, -13, 7530, 16802, 25132, 2816, 9213, -546, 30204, 9956, 1120, 8823, 896, 17550, 16177, 6895, 6277, 13099, 22655, 6193, 7279, 4155, 360, -1163, 21228, 8073, 12774, 25697, -503, 10540, 4144, 5502, 19784, 9211, 3858, 10106, 9342, 6656, 7422, -1110, 28384, 10013, 14609, -1748, -2057, 3829, 2300, 4971, 34101, 18551, 21211, -3848, 9554, -10046, -2582, 710, 12972, 7666, 10574, 5379, 18712, 6555, 11482, 5877, 20956, 30432, -12212, 19359, };
const TfArray<96, float> quant18_scale = { 96, { 0.00013706396566703916, 0.00016980504733510315, 0.00012743909610435367, 0.00067584984935820103, 0.00026888164575211704, 0.00012008499470539391, 0.00014729760005138814, 0.00037594157038256526, 0.00022201705724000931, 9.968899394152686e-05, 0.0001630104670766741, 0.000286660942947492, 0.00024953941465355456, 8.0051191616803408e-05, 0.00020089281315449625, 0.00028111401479691267, 0.00015354559582192451, 0.00013571445015259087, 0.00016737058467697352, 0.00052127940580248833, 0.00028522135107778013, 0.00012706538836937398, 0.00020584894809871912, 0.00017365958774462342, 0.0001423090579919517, 0.00030311773298308253, 0.00024361388932447881, 0.00016376361600123346, 0.00045735732419416308, 0.00029660557629540563, 0.00018997014558408409, 0.00011285248183412477, 7.9187993833329529e-05, 0.00038154481444507837, 0.00017987897444982082, 0.00052861764561384916, 7.585127605125308e-05, 0.00026477209758013487, 0.00040775071829557419, 0.0001105274714063853, 0.0005747481482103467, 0.00010677623504307121, 0.0001309971121372655, 0.00010948210547212511, 0.00018048827769234776, 0.00024955725530162454, 0.00012630797573365271, 0.00023346907983068377, 0.00021962329628877342, 0.00020769705588463694, 0.00031207932624965906, 0.00056119397049769759, 0.00012605854135472327, 0.00019933568546548486, 0.00018440683197695762, 7.1271031629294157e-05, 0.00025978812482208014, 0.00016668203170411289, 0.00019387435168027878, 0.00029428419657051563, 8.4998544480185956e-05, 0.00015262822853401303, 0.00027512668748386204, 0.00027603498892858624, 0.00011270904360571876, 0.00016956133185885847, 0.0002582244633231312, 0.00030359113588929176, 9.5385039458051324e-05, 0.00011751378769986331, 0.00013696096721105278, 0.00027652367134578526, 0.00018617541354615241, 0.00034510839032009244, 0.00017773757281247526, 0.00025686027947813272, 6.9100882683414966e-05, 0.00024164227943401784, 7.9579571320209652e-05, 0.00031154221505858004, 0.00011363533849362284, 0.0002085744054056704, 0.00014885151176713407, 0.00034280616091564298, 0.00012367701856419444, 0.00020581591525115073, 0.00015642907237634063, 0.0002547650074120611, 9.0220339188817888e-05, 0.00024241219216492027, 0.00012298334331717342, 0.00028896910953335464, 0.00010072973236674443, 9.1208552476018667e-05, 0.00024161969486158341, 0.00016882465570233762, } };
const TfLiteAffineQuantization quant18 = { (TfLiteFloatArray*)&quant18_scale, (TfLiteIntArray*)&g0::quant6_zero, 0 };
const MODEL_SECTION(EI_MODEL_SECTION) ALIGN(16) int8_t tensor_data19[96*1*1*16] = { 
  /* [0][0][][] */ 30,2,127,86,51,-15,39,-14,116,-4,-55,-73,23,85,-29,-65, 
  /* [1][0][][] */ 32,90,-11,8,82,6,21,46,46,88,-28,127,8,-30,101,-85, 
  /* [2][0][][] */ 36,-70,3,-10,-61,27,-55,91,-75,-100,1,90,-21,-127,82,-95, 
  /* [3][0][][] */ 123,127,-9,25,-121,-5,-51,-16,-6,5,107,-67,-49,83,-40,-27, 
  /* [4][0][][] */ 6,-8,25,17,-18,27,-23,34,-51,-37,-7,-5,-5,-127,13,-6, 
  /* [5][0][][] */ 113,-47,-21,6,-5,-111,-25,13,2,17,-127,4,18,-14,-11,32, 
  /* [6][0][][] */ -127,-57,-22,82,-63,5,-33,38,-122,-62,-55,-29,12,49,-18,107, 
  /* [7][0][][] */ -12,3,-80,58,45,-127,-32,37,19,-20,8,2,-5,22,-49,8, 
  /* [8][0][][] */ 25,-54,-6,-18,15,28,-63,-67,-8,8,-61,4,-127,4,-3,21, 
  /* [9][0][][] */ 24,-58,80,127,16,18,-19,-95,122,-115,15,-42,-7,40,-68,33, 
  /* [10][0][][] */ -127,-51,-10,-36,91,46,64,93,115,-75,-89,30,100,-93,-92,100, 
  /* [11][0][][] */ 39,-22,-127,21,61,18,-30,40,-6,-42,-19,-2,-6,28,-50,5, 
  /* [12][0][][] */ 120,-59,-2,-8,-19,-81,-52,-35,29,-3,-127,-34,-53,-32,-1,79, 
  /* [13][0][][] */ 8,-56,46,-51,113,21,-99,-127,52,-42,63,10,0,-14,53,-32, 
  /* [14][0][][] */ -64,40,-99,-55,88,-127,67,-65,56,48,-2,-112,26,105,-20,34, 
  /* [15][0][][] */ 27,-11,56,51,52,-62,-38,-3,29,-56,-74,-10,-127,-49,-23,62, 
  /* [16][0][][] */ -122,67,-10,17,-6,94,37,60,-33,30,127,9,-2,-6,7,-58, 
  /* [17][0][][] */ -12,-2,-43,-32,-38,13,47,72,-27,127,-23,5,-7,72,66,2, 
  /* [18][0][][] */ -1,127,-58,-6,2,19,61,-64,22,118,-45,117,8,-54,34,-93, 
  /* [19][0][][] */ 2,-21,37,13,6,40,-8,15,17,3,-42,-12,-127,6,-2,32, 
  /* [20][0][][] */ 99,-54,-12,-92,-39,30,37,-82,-66,29,-127,-49,39,6,52,14, 
  /* [21][0][][] */ 53,-14,127,45,-18,55,26,3,9,37,-24,-5,-12,96,6,-11, 
  /* [22][0][][] */ 27,14,11,-3,-28,-9,38,127,-2,-21,21,22,4,33,39,38, 
  /* [23][0][][] */ -20,9,-95,15,19,-127,8,48,0,-19,-6,7,-80,18,-12,41, 
  /* [24][0][][] */ 26,-54,10,-58,67,8,-30,-16,43,30,67,110,-58,85,127,31, 
  /* [25][0][][] */ -127,-110,-42,13,23,-3,0,-53,-57,-2,-98,18,17,42,29,50, 
  /* [26][0][][] */ 5,-1,43,-9,-10,19,-29,68,-83,-55,-5,19,6,-127,32,-16, 
  /* [27][0][][] */ -99,32,-49,21,34,-25,-4,28,33,-41,127,25,-25,14,-17,-27, 
  /* [28][0][][] */ -20,-9,17,31,-3,-2,15,78,23,16,-22,-2,-127,-13,-8,40, 
  /* [29][0][][] */ -16,63,38,-43,35,-21,28,-25,-127,30,-35,7,5,31,-78,20, 
  /* [30][0][][] */ -8,-8,-127,-29,22,-49,-2,14,-19,-9,-4,-11,-44,-22,6,12, 
  /* [31][0][][] */ 127,-41,-116,20,52,-5,-59,68,-8,-9,-88,-41,21,-1,-92,26, 
  /* [32][0][][] */ -127,48,33,52,29,106,15,25,28,0,125,11,-39,18,-28,-36, 
  /* [33][0][][] */ 13,-24,127,-20,-74,33,12,-32,1,16,-12,28,-5,29,39,26, 
  /* [34][0][][] */ -4,-31,-32,-96,34,-2,-7,-26,-13,-64,-46,-127,-8,13,30,-1, 
  /* [35][0][][] */ -8,-20,37,43,47,-14,29,-15,-127,51,-4,29,-26,125,-48,-37, 
  /* [36][0][][] */ -123,56,-19,-7,-3,46,38,87,14,26,127,-11,12,33,15,-36, 
  /* [37][0][][] */ -31,9,127,-25,-70,-69,17,-43,18,20,-11,3,4,-69,62,6, 
  /* [38][0][][] */ 20,-21,-18,22,28,-58,-60,1,-23,-30,62,-17,127,21,-13,12, 
  /* [39][0][][] */ -20,-25,3,-59,-50,-94,58,127,-35,-22,0,-58,4,68,62,53, 
  /* [40][0][][] */ 60,1,-16,-7,-15,71,-12,0,6,-6,16,-6,127,4,-23,-20, 
  /* [41][0][][] */ -1,-19,-28,-127,40,-10,-40,-86,0,-62,6,-50,-3,-11,-16,27, 
  /* [42][0][][] */ 58,65,-4,96,-127,-4,-87,12,-91,-51,91,-94,-53,117,-35,19, 
  /* [43][0][][] */ 10,117,-39,127,14,11,52,-78,-57,87,-6,19,12,-50,56,46, 
  /* [44][0][][] */ -9,-37,-127,31,67,82,-58,48,-9,-32,32,-25,16,-23,-49,-9, 
  /* [45][0][][] */ 13,26,-13,-127,-20,4,56,1,-7,33,-30,19,-2,-99,40,-33, 
  /* [46][0][][] */ 4,33,50,-24,7,14,-40,54,12,-49,-20,2,16,127,44,-9, 
  /* [47][0][][] */ 23,-25,28,-38,-33,12,-70,50,-9,-38,13,25,18,-127,48,8, 
  /* [48][0][][] */ 4,-14,15,-127,-6,-21,-5,7,15,-24,18,-19,13,47,-5,68, 
  /* [49][0][][] */ 30,-35,2,127,99,14,-5,50,-51,11,38,40,-3,50,121,-5, 
  /* [50][0][][] */ -30,-24,66,-26,5,127,-28,-52,35,-29,121,41,94,0,-15,-59, 
  /* [51][0][][] */ 23,60,19,9,14,11,-37,31,49,8,4,127,14,37,36,-53, 
  /* [52][0][][] */ -22,48,122,19,19,-42,8,-50,-29,7,9,29,8,94,-127,-20, 
  /* [53][0][][] */ -1,-11,-37,-127,-38,10,12,-41,-21,37,10,-11,11,-28,52,3, 
  /* [54][0][][] */ -1,17,-38,-62,13,16,-7,14,50,-47,8,-40,-1,127,10,41, 
  /* [55][0][][] */ -22,-19,-58,-21,-1,-58,-5,-127,-3,-98,1,4,-22,-96,-57,-1, 
  /* [56][0][][] */ 29,38,22,53,-4,-15,23,127,13,-28,13,-34,81,-15,-57,42, 
  /* [57][0][][] */ 76,-10,127,-15,-56,-44,-2,-37,35,10,-102,26,54,-41,55,20, 
  /* [58][0][][] */ 100,96,8,112,-127,-25,0,42,-27,19,90,-31,-66,-76,-46,-71, 
  /* [59][0][][] */ 127,-48,-5,3,-15,-19,-15,2,-27,14,-123,-16,17,-1,7,17, 
  /* [60][0][][] */ -127,44,-13,-9,8,5,30,35,2,19,108,0,-35,-9,27,-9, 
  /* [61][0][][] */ -91,54,34,39,25,-6,-73,-50,122,-98,69,5,61,-38,-127,-70, 
  /* [62][0][][] */ -14,-50,-127,54,72,88,-15,88,22,-71,28,-21,-71,5,-100,-3, 
  /* [63][0][][] */ -45,6,127,-31,-53,-64,25,-39,6,19,4,16,-3,-53,84,10, 
  /* [64][0][][] */ 20,72,-28,22,53,6,106,-123,-35,127,-1,-6,-15,-115,2,59, 
  /* [65][0][][] */ 6,27,2,-31,62,16,4,-127,-31,-63,-22,-47,-18,-41,45,21, 
  /* [66][0][][] */ -127,5,-16,8,-45,24,13,-37,-74,-34,-83,48,58,25,41,76, 
  /* [67][0][][] */ 4,-55,12,127,13,-11,-36,35,72,17,-4,-24,-6,-28,-100,-31, 
  /* [68][0][][] */ 15,4,-8,127,-51,-8,-2,-33,-53,30,18,-31,-24,-66,-32,-57, 
  /* [69][0][][] */ 80,75,20,108,52,-21,45,-127,-2,87,39,40,20,-47,40,-15, 
  /* [70][0][][] */ 0,-47,3,-107,127,-36,48,12,74,-42,71,-59,13,108,75,127, 
  /* [71][0][][] */ 11,48,4,79,42,-127,-37,93,44,-87,16,3,15,-52,-50,34, 
  /* [72][0][][] */ -127,-68,-21,44,10,37,-21,27,-57,-28,-87,39,65,16,-5,100, 
  /* [73][0][][] */ -29,-4,-24,50,11,-18,7,-5,76,19,5,19,9,127,-70,-31, 
  /* [74][0][][] */ 82,-49,17,-24,-42,-27,38,-20,-43,-14,-127,23,-121,-14,31,48, 
  /* [75][0][][] */ -9,-18,-19,127,-26,2,-5,-24,-61,20,-21,-23,6,-44,-12,-35, 
  /* [76][0][][] */ -7,-16,-5,45,39,22,-29,-127,17,-124,-2,28,-16,-20,30,-40, 
  /* [77][0][][] */ 127,-41,38,48,-30,-3,-49,-12,41,-17,-46,55,29,6,-52,29, 
  /* [78][0][][] */ -16,-10,61,2,18,-21,-78,26,45,-36,-37,-45,17,127,43,-31, 
  /* [79][0][][] */ -8,24,60,13,47,61,-55,-48,15,-55,87,-13,127,-20,-32,-47, 
  /* [80][0][][] */ -127,-83,-84,123,-2,35,46,-3,-95,32,-93,5,71,-88,5,64, 
  /* [81][0][][] */ 60,-3,-69,42,127,97,-49,-46,-7,-115,-15,-80,-36,-20,-100,18, 
  /* [82][0][][] */ 117,127,1,43,-121,-20,-91,-23,-62,-7,116,-59,-48,107,-14,-39, 
  /* [83][0][][] */ 127,50,9,-23,4,-7,-5,33,34,22,84,-34,-52,-26,-25,-75, 
  /* [84][0][][] */ 14,-61,-62,-26,51,28,-11,-127,-29,-61,21,23,-29,-7,5,-22, 
  /* [85][0][][] */ -18,-3,-54,-49,-15,-19,83,89,-22,127,-17,-66,40,58,70,-18, 
  /* [86][0][][] */ 101,-42,17,-6,7,-34,-14,-33,0,-6,-127,2,16,18,-26,13, 
  /* [87][0][][] */ -28,38,14,-36,-15,71,-28,64,-14,-30,44,-3,8,-127,18,7, 
  /* [88][0][][] */ 2,-10,-108,-48,60,-13,-26,-127,-2,-22,7,-20,-56,-15,31,-24, 
  /* [89][0][][] */ 16,-31,26,-127,41,7,-62,118,88,-86,34,21,2,46,33,41, 
  /* [90][0][][] */ -16,7,-28,60,75,-12,98,-100,74,127,-37,49,17,-10,-32,-32, 
  /* [91][0][][] */ 41,-25,-51,-13,-2,-127,-18,-13,-11,0,-52,-13,39,-16,7,31, 
  /* [92][0][][] */ 17,8,127,71,34,16,8,57,-42,32,-66,31,36,106,10,2, 
  /* [93][0][][] */ 127,-44,-29,-18,-20,-61,2,29,-21,30,-123,-15,4,23,-1,46, 
  /* [94][0][][] */ 14,-18,51,92,127,-32,-5,65,-1,-12,12,74,-9,125,-31,-96, 
  /* [95][0][][] */ -108,46,31,30,15,48,27,8,9,-1,127,-8,-23,37,-12,-26, 
};
const TfArray<96, float> quant19_scale = { 96, { 0.00060489907627925277, 0.00074939400656148791, 0.00056242197751998901, 0.0029827018734067678, 0.0011866448912769556, 0.00052996643353253603, 0.00065006274962797761, 0.0016591282328590751, 0.0009798192186281085, 0.00043995355372317135, 0.00071940774796530604, 0.0012651096330955625, 0.0011012825416401029, 0.00035328679950907826, 0.00088659243192523718, 0.0012406294699758291, 0.00067763682454824448, 0.0005989433266222477, 0.00073865009471774101, 0.0023005420807749033, 0.0012587562669068575, 0.00056077272165566683, 0.00090846512466669083, 0.00076640507904812694, 0.00062804704066365957, 0.0013377376599237323, 0.0010751317022368312, 0.00072273158002644777, 0.0020184372551739216, 0.0013089978601783514, 0.00083838787395507097, 0.00049804744776338339, 0.00034947728272527456, 0.0016838568262755871, 0.00079385284334421158, 0.0023329276591539383, 0.00033475147210992873, 0.0011685084318742156, 0.0017995103262364864, 0.0004877865721937269, 0.0025365136098116636, 0.00047123141121119261, 0.00057812448358163238, 0.00048317312030121684, 0.00079654186265543103, 0.0011013613548129797, 0.00055743008852005005, 0.0010303599992766976, 0.00096925493562594056, 0.00091662129852920771, 0.0013772875536233187, 0.0024766954593360424, 0.00055632926523685455, 0.00087972043547779322, 0.00081383547512814403, 0.00031453766860067844, 0.0011465128045529127, 0.00073561130557209253, 0.0008556180982850492, 0.0012987529626116157, 0.000375120755052194, 0.00067358819069340825, 0.0012142058694735169, 0.0012182145146653056, 0.00049741443945094943, 0.00074831844540312886, 0.0011396119371056557, 0.0013398269657045603, 0.00042095908429473639, 0.0005186190246604383, 0.00060444447444751859, 0.0012203711085021496, 0.00082164071500301361, 0.0015230533899739385, 0.00078440230572596192, 0.0011335915187373757, 0.00030496023828163743, 0.0010664304718375206, 0.0003512054099701345, 0.0013749171048402786, 0.00050150242168456316, 0.00092049327213317156, 0.0006569206016138196, 0.0015128931263461709, 0.0005458189407363534, 0.0009083193726837635, 0.00069036235800012946, 0.0011243445333093405, 0.00039816589560359716, 0.0010698282858356833, 0.00054275762522593141, 0.0012752960901707411, 0.00044454660383053124, 0.00040252716280519962, 0.0010663308203220367, 0.00074506725650280714, } };
const TfLiteAffineQuantization quant19 = { (TfLiteFloatArray*)&quant19_scale, (TfLiteIntArray*)&g0::quant6_zero, 0 };
const MODEL_SECTION(EI_MODEL_SECTION) ALIGN(16) int32_t tensor_data20[16] = { -37717, 28, 669, -7865, 1337, -6044, -10097, -42246, 398, 25693, 30641, -12544, -804, -23841, 38112, -43123, };
const TfArray<16, float> quant20_scale = { 16, { 0.00074053980642929673, 0.00076167110819369555, 0.0012689254945144057, 0.00099227088503539562, 0.00075744232162833214, 0.0010093859164044261, 0.001082036062143743, 0.00062635680660605431, 0.00053111731540411711, 0.00067658716579899192, 0.00068776344414800406, 0.00062719901325181127, 0.0011572270886972547, 0.0011794404126703739, 0.00062738568522036076, 0.00061339861713349819, } };
const TfLiteAffineQuantization quant20 = { (TfLiteFloatArray*)&quant20_scale, (TfLiteIntArray*)&g0::quant8_zero, 0 };
const MODEL_SECTION(EI_MODEL_SECTION) ALIGN(16) int8_t tensor_data21[16*1*1*48] = { 
  /* [0][0][][] */ -13,-7,-22,10,28,-5,6,106,-48,12,38,-10,21,-20,-15,17,17,-11,-5,0,64,-7,23,127,-13,89,-8,-17,30,-18,26,-24,-20,53,19,-44,18,45,15,-9,-102,-28,16,39,30,30,-119,-53, 
  /* [1][0][][] */ -40,-12,24,18,-30,12,-2,58,-53,-28,9,-40,-19,-16,0,-6,-26,122,-6,14,14,8,-25,-14,28,-40,14,24,-24,-87,-40,18,-18,-3,31,-4,-6,-46,6,14,-17,-26,127,9,6,-1,26,-16, 
  /* [2][0][][] */ -24,-10,-13,-34,2,-62,8,-15,2,10,17,28,16,11,-15,10,-4,-19,-22,-10,-2,-3,0,-127,-10,75,-16,1,2,-21,-1,-4,-10,56,10,1,24,7,29,5,-38,1,-21,-10,-4,-8,17,5, 
  /* [3][0][][] */ -6,33,2,-29,0,1,1,-5,-18,-4,-1,39,-127,3,-3,-2,2,0,-18,-3,-30,9,2,16,-6,-14,3,23,-10,18,6,16,6,-1,18,19,-10,25,41,3,12,7,23,-30,7,-7,6,18, 
  /* [4][0][][] */ 35,-31,10,9,19,30,24,-26,-28,4,-12,-22,1,10,-2,20,21,-6,-83,5,-8,14,11,71,-2,-30,6,50,8,-72,21,8,15,-39,30,-127,10,38,0,16,-20,22,6,-25,-11,-24,11,7, 
  /* [5][0][][] */ 30,2,-22,53,-3,-4,10,23,-2,-1,42,5,3,52,-1,0,-26,21,25,8,7,7,0,-27,-2,-47,5,-17,-5,-6,5,4,63,-127,1,26,-16,-9,17,6,-92,58,17,-7,-3,-4,-100,-5, 
  /* [6][0][][] */ 26,-2,7,8,-11,-6,0,-16,-1,5,-4,7,-14,6,6,3,3,-8,127,5,9,7,19,-31,8,0,22,-14,-14,-7,-2,10,2,-11,29,-33,2,-39,65,9,2,-10,-5,10,-6,4,9,-11, 
  /* [7][0][][] */ -38,-15,-12,38,-8,75,-4,43,5,27,-11,127,76,-8,-4,-1,-2,-20,-2,-15,-24,-5,-16,70,2,-36,-51,-29,-11,-13,-10,-9,4,7,-25,10,7,-55,92,-5,28,22,-58,-55,11,-5,8,-2, 
  /* [8][0][][] */ -52,-47,2,4,-3,3,0,35,-4,-74,3,44,49,-2,4,9,-12,61,-29,5,-49,21,-5,-9,2,1,7,41,-5,120,-13,21,-2,3,-16,-127,-115,67,37,28,22,0,114,-25,6,31,22,29, 
  /* [9][0][][] */ -25,7,-8,30,18,-36,-5,-1,57,-42,9,56,-60,8,15,-2,-7,17,-39,-17,53,10,-14,-17,3,11,50,-25,13,12,8,-4,-9,21,79,-107,-8,-127,-97,7,-31,22,59,10,8,11,-20,-41, 
  /* [10][0][][] */ -21,-6,-31,-127,48,89,8,-9,1,32,21,13,49,-51,-31,22,37,-46,58,-36,36,-28,43,55,-46,-109,3,-37,51,30,42,-43,-27,-80,29,-3,21,-47,6,-34,-33,-66,-10,10,11,18,21,-39, 
  /* [11][0][][] */ -6,60,-9,67,39,-65,-84,-15,3,60,-10,3,-11,53,-1,-81,22,46,6,-6,-58,-106,10,-2,16,-44,20,-22,65,-39,29,-95,54,-29,-37,-97,100,20,10,-127,-7,76,105,-76,-14,-67,34,29, 
  /* [12][0][][] */ 127,-4,-18,12,1,23,5,101,19,-11,-54,-26,-2,15,-11,-7,-11,6,-5,0,4,5,2,17,-1,14,0,7,-8,13,-7,1,2,-67,-11,10,-14,-15,-30,3,-18,-83,4,-124,-54,-7,79,-3, 
  /* [13][0][][] */ 8,1,1,7,8,-8,1,2,2,5,4,23,-3,3,7,0,8,3,12,1,14,-12,9,-2,4,0,16,127,11,-6,6,-1,5,1,-37,22,11,-7,6,-17,-11,-2,2,5,-3,-1,-7,-14, 
  /* [14][0][][] */ 60,-22,41,-69,48,28,34,-92,-55,-50,-5,120,-73,2,62,8,51,28,-53,65,20,12,76,-15,22,62,-29,-110,25,-31,55,43,-9,72,-127,-49,-43,44,89,9,-36,1,52,-2,5,4,10,-28, 
  /* [15][0][][] */ -3,-45,-66,-30,60,25,68,-52,-4,16,-21,-28,75,18,-93,63,62,45,82,-81,-93,-28,55,-10,-86,38,22,50,48,44,49,-40,26,68,99,127,-13,-111,-14,-33,95,51,118,-45,-8,-25,-11,59, 
};
const TfArray<4, int> tensor_dimension21 = { 4, { 16,1,1,48 } };
const TfArray<16, float> quant21_scale = { 16, { 0.031472939997911453, 0.032371021807193756, 0.05392933264374733, 0.042171511799097061, 0.03219129890203476, 0.042898900806903839, 0.045986529439687729, 0.026620162650942802, 0.022572485730051994, 0.028754955157637596, 0.029229944571852684, 0.026655957102775574, 0.049182150512933731, 0.050126217305660248, 0.026663890108466148, 0.026069439947605133, } };
const TfLiteAffineQuantization quant21 = { (TfLiteFloatArray*)&quant21_scale, (TfLiteIntArray*)&g0::quant8_zero, 0 };
const MODEL_SECTION(EI_MODEL_SECTION) ALIGN(16) int32_t tensor_data22[48] = { 2151, 37012, -1767, 37191, 5391, 128882, -3830, 56705, 2691, 29815, 29574, 1608, -262, 32701, -1149, -1858, -604, -1015, 1321, -1494, -100, -4028, 475, -20778, -4343, 43044, 127013, 99114, 2535, 1894, -3013, 1113, 25698, -904, 30099, -5678, 63945, 151, 55344, 2485, -2052, 50297, -1522, 3564, 47757, 17, 3952, 48065, };
const TfArray<1, int> tensor_dimension22 = { 1, { 48 } };
const TfArray<48, float> quant22_scale = { 48, { 7.7025266364216805e-05, 3.9494883822044358e-05, 0.00015514719416387379, 5.8449521020520478e-05, 0.00015592804993502796, 6.2885323131922632e-05, 0.00012727470311801881, 0.00010010655387304723, 7.8564095019828528e-05, 5.0683105655480176e-05, 5.7100693084066734e-05, 9.9052806035615504e-05, 4.5469874748960137e-05, 3.919126174878329e-05, 0.0001498118945164606, 0.0001701805304037407, 0.00019617183716036379, 7.6602060289587826e-05, 0.00012687046546489, 0.00011883939441759139, 8.2366022979840636e-05, 0.00021132985420990735, 9.590271656634286e-05, 0.00013879279140383005, 0.00010827543155755848, 0.00010513216693652794, 2.7442603823146783e-05, 7.2613540396559983e-05, 0.00012473206152208149, 0.00011813644232461229, 9.4068454927764833e-05, 0.00016743573360145092, 5.7907709560822695e-05, 0.00018155714496970177, 2.9639601052622311e-05, 6.4905616454780102e-05, 9.1137539129704237e-05, 9.8009113571606576e-05, 0.00010302112787030637, 0.00010206254955846816, 0.00015517341671511531, 0.00011954062210861593, 9.9085875262971967e-05, 8.3505445218179375e-05, 3.0053051887080073e-05, 0.00015350992907769978, 8.7954344053287059e-05, 2.9402750442386605e-05, } };
const TfArray<48, int> quant22_zero = { 48, { 0,0,0,0,0,0,0,0,0,0,0,0,0,0,0,0,0,0,0,0,0,0,0,0,0,0,0,0,0,0,0,0,0,0,0,0,0,0,0,0,0,0,0,0,0,0,0,0 } };
const TfLiteAffineQuantization quant22 = { (TfLiteFloatArray*)&quant22_scale, (TfLiteIntArray*)&quant22_zero, 0 };
const MODEL_SECTION(EI_MODEL_SECTION) ALIGN(16) int8_t tensor_data23[1*3*3*48] = { 
  /* [0][0][][] */ 68,-92,97,69,52,-34,106,-65,60,-89,-79,47,51,-41,-72,-90,101,79,49,78,66,-74,-82,51,-32,-40,-65,-64,-67,62,-62,-113,-13,41,68,64,-64,53,-49,-22,51,-74,57,61,-94,11,75,-34, 82,-96,127,85,-77,-68,-56,-84,97,-102,-64,73,79,-108,-96,92,-37,95,82,127,84,-114,52,71,-52,-77,-70,-80,55,80,-30,-127,-86,78,81,83,-82,82,-82,-16,77,-94,83,90,-74,-127,92,-102, 34,-46,70,37,17,-41,-48,-38,42,-31,5,33,28,-77,-55,-1,-52,38,34,69,32,-54,31,26,-28,-46,-45,-23,30,31,88,-88,-83,43,35,33,-30,38,-38,-10,41,-41,34,43,-7,-10,35,-72, 
  /* [0][1][][] */ 92,-111,-42,92,54,-82,127,-89,87,-113,-71,82,83,-111,-14,-127,127,108,75,-39,83,106,-127,73,73,-74,-94,-99,-127,86,-68,-8,-86,71,106,96,-85,80,-80,89,85,-100,87,90,-89,106,94,-92, 127,-127,-65,127,-127,-127,-90,-127,127,-127,-127,127,127,-127,-23,97,-64,127,127,-52,127,127,68,127,127,-127,-127,-127,52,127,-28,15,-127,127,127,127,-127,127,-127,127,127,-127,127,127,-127,-12,127,-127, 63,-78,-33,65,36,-62,-48,-62,55,-42,-60,57,47,-53,-16,11,-62,51,59,-31,56,65,50,64,66,-64,-63,-44,36,55,127,15,-62,68,48,48,-49,60,-60,56,61,-58,53,62,-61,-67,59,-55, 
  /* [0][2][][] */ 45,-51,-47,50,25,-53,64,-43,40,-71,-5,40,55,-73,83,-78,72,50,36,-31,25,-10,-78,29,-24,-43,-48,-48,-74,31,-40,90,-73,37,49,43,-27,39,-42,-88,47,-50,41,44,-22,16,41,-75, 72,-74,-49,80,-57,-64,-71,-68,50,-75,-66,61,74,-49,127,33,-46,58,63,-44,55,-16,41,66,-50,-66,-78,-60,31,61,-23,116,-55,65,58,58,-51,63,-66,-107,68,-67,61,62,-85,49,64,-53, 41,-41,-27,46,27,-20,-17,-34,13,-24,-52,27,30,4,68,25,-35,22,29,-33,28,1,39,41,-25,-29,-49,-23,33,33,61,67,0,33,16,22,-23,31,-28,-55,29,-32,26,30,-62,9,31,-3, 
};
const TfArray<4, int> tensor_dimension23 = { 4, { 1,3,3,48 } };
